-0.023888906463980675
0.006613729055970907
0.03347187861800194
-0.04089764505624771
-0.05360756814479828
0.07888181507587433
0.07976197451353073
-0.06439965963363647
-0.005366786848753691
0.060158539563417435
-0.04719286039471626
-0.05879193916916847
0.08079554885625839
0.039812132716178894
0.07007487118244171
-0.07553981244564056
0.0751325935125351
-0.08460322767496109
0.0480818934738636
-0.05250145494937897
0.07199321687221527
-0.002212237799540162
0.04365255683660507
-0.009486370719969273
-0.050850436091423035
-0.018197758123278618
0.07078951597213745
0.0030303229577839375
-0.012802386656403542
0.0148025993257761
-0.055249109864234924
0.08215600252151489
-0.01682935282588005
0.06683601438999176
0.04576617479324341
-0.08566568046808243
0.013243621215224266
-0.003727683564648032
-0.03884492814540863
-0.030892958864569664
0.019860366359353065
0.022150369361042976
0.07552168518304825
0.02704521082341671
-0.02267836406826973
-0.04979703947901726
-0.029156232252717018
0.0688474103808403
-0.014103267341852188
-0.07728204876184464
0.08583340048789978
-0.005276781506836414
0.0015723365359008312
0.0381900854408741
0.0073067122139036655
0.02535221166908741
-0.0344252847135067
0.08514032512903214
-0.0216502845287323
0.04022267833352089
-0.026317356154322624
-0.06253626197576523
0.024551717564463615
0.06643005460500717
0.05629284307360649
0.05203888565301895
0.057313863188028336
-0.023715389892458916
-0.023070532828569412
0.0018836602102965117
-0.0014619703870266676
-0.0017851445591077209
0.02089555375277996
-0.04449538141489029
-0.0375240221619606
-0.0022297014947980642
-0.012920352630317211
-0.0777815580368042
0.013434156775474548
0.08038409799337387
0.034577272832393646
-0.011429721489548683
-0.04824307560920715
-0.0835224986076355
-0.03869651257991791
0.04267451539635658
-0.004056782927364111
0.0013804117916151881
-0.014811367727816105
0.0575430653989315
-0.07404481619596481
-0.08907078206539154
-0.05673561617732048
-0.007486386224627495
-0.07128731906414032
-0.0020214945543557405
-0.04973538592457771
0.1029420867562294
0.08359944075345993
-0.03364650532603264
0.0009355040383525193
0.02499842457473278
-0.04382897913455963
0.055603280663490295
0.07505093514919281
-0.05548398196697235
-0.046172838658094406
0.08948981016874313
-0.045657992362976074
-0.02108902856707573
-0.00686097564175725
-0.04024125635623932
0.07852528244256973
-0.026084257289767265
0.03449691832065582
-0.01227872259914875
0.06792788952589035
-0.01223086379468441
0.023099197074770927
-0.06314297020435333
-0.091838538646698
0.013196464627981186
-0.1132180392742157
-0.1506095826625824
0.031630583107471466
-0.052187442779541016
0.05453427881002426
0.038685958832502365
-0.0268304031342268
-0.018543632701039314
-0.0469532310962677
0.11473202705383301
0.09806407243013382
0.03758420795202255
-0.04197516292333603
-0.013673455454409122
-0.08761505037546158
0.007245869375765324
0.03087019734084606
-0.0473620779812336
0.04575938358902931
0.06045563891530037
-0.05757886916399002
-0.06449845433235168
0.060256265103816986
0.005694509483873844
-0.12623843550682068
-0.07428096234798431
-0.06747712194919586
-0.052202656865119934
-0.1452953815460205
-0.05083947256207466
0.05871479585766792
0.006934121251106262
-0.035949401557445526
-0.009899811819195747
-0.014369260519742966
0.08696115016937256
0.11593745648860931
0.0067900484427809715
0.12394148111343384
0.0002806378179229796
0.04309428855776787
0.07871599495410919
0.007001898717135191
-0.0480608232319355
0.07134691625833511
0.05926110967993736
0.07517829537391663
-0.05944018438458443
0.04973039776086807
0.016198694705963135
-0.05046398937702179
-0.0008898664964362979
-0.1493864804506302
-0.06259362399578094
-0.1464730054140091
-0.1380995362997055
-0.006012586411088705
0.03067169152200222
-0.05361871048808098
-0.04523792117834091
0.050764165818691254
0.08874249458312988
-0.020876022055745125
0.04827585443854332
0.05782747641205788
0.13720010221004486
-0.00011306293890811503
-0.0003063105687033385
0.021279556676745415
-0.0473824217915535
-0.07668820768594742
0.073041632771492
0.07165078073740005
-0.00692401546984911
-0.033334553241729736
0.012442938052117825
-0.008958140388131142
-0.07365488260984421
-0.037728939205408096
-0.1402014046907425
-0.020754657685756683
-0.1323406994342804
-0.13304771482944489
-0.060714997351169586
-0.08304725587368011
0.028049062937498093
-0.057928405702114105
0.0792059451341629
0.02539435587823391
0.07057312875986099
0.02353605069220066
0.10191784054040909
0.03697590529918671
0.031128382310271263
0.09765718877315521
0.07917073369026184
0.005392378196120262
-0.009884705767035484
0.033428747206926346
0.021525375545024872
-0.0319521464407444
-0.061484333127737045
0.04936927929520607
0.055358704179525375
0.0020219404250383377
-0.03313646838068962
-0.08087632805109024
-0.014792315661907196
-0.010508120059967041
-0.06122395023703575
-0.0431215837597847
-0.0800161063671112
0.07023632526397705
0.03460238128900528
0.04183966666460037
0.07649391889572144
0.009855561889708042
-0.04262487217783928
-0.023006685078144073
0.04243535175919533
0.03480609878897667
0.0756850391626358
-0.0315951369702816
0.09847637265920639
-0.07897293567657471
0.00707402965053916
-0.041740719228982925
0.006321887951344252
0.041375067085027695
0.01827940344810486
-0.04745190963149071
-0.011508466675877571
-0.05919099599123001
-0.07599826902151108
0.031092246994376183
-0.15531623363494873
-0.06569745391607285
0.009818143211305141
-0.012207822874188423
-0.05276063084602356
0.13832540810108185
0.012048246338963509
0.03982597962021828
0.08136249333620071
0.09883233159780502
-0.060995012521743774
0.000600864237640053
0.002728032413870096
-0.020062481984496117
-0.11101479828357697
-0.02731122076511383
-0.016025053337216377
-0.019501563161611557
-0.010668173432350159
-0.05151672288775444
0.07629720121622086
-0.02164309285581112
0.03706542029976845
-0.063688725233078
-0.0804116502404213
0.014396551996469498
-0.0061458200216293335
0.021841587498784065
-0.06504758447408676
0.001168717397376895
-0.10961758345365524
0.05742250382900238
0.04244748502969742
0.1712840497493744
0.1129833459854126
0.09868094325065613
0.00465108547359705
0.053122758865356445
0.03131204843521118
-0.17598606646060944
-0.19148020446300507
-0.07818220555782318
-0.02857412025332451
-0.058198511600494385
-0.1035802885890007
-0.001092490740120411
-0.052046868950128555
-0.0679759755730629
-0.02578945830464363
0.061725929379463196
0.07427416741847992
0.0557817779481411
0.08411019295454025
-0.0740760788321495
-0.07900753617286682
-0.08799432218074799
0.030011670663952827
-0.03956031799316406
-0.03148341178894043
-0.014157206751406193
-0.022593248635530472
0.07988937944173813
0.09213156998157501
0.08972565829753876
0.13524791598320007
0.05270540341734886
0.021198151633143425
-0.03220859169960022
-0.20216970145702362
-0.12769261002540588
0.03148721903562546
-0.0649799033999443
0.05984523147344589
0.015749016776680946
-0.04598470777273178
0.010015774518251419
-0.06764491647481918
0.08016249537467957
-0.019026001915335655
0.05196518823504448
0.036028556525707245
0.002159508876502514
0.0043509951792657375
-0.03440910205245018
0.09613565355539322
-0.05879442021250725
-0.04664439335465431
-0.012188301421701908
-0.0020579800475388765
-0.10290012508630753
-0.06458739936351776
-0.019404832273721695
-0.009404432028532028
0.12364321947097778
0.05275850370526314
-0.10568267107009888
-0.009067386388778687
-0.04623334854841232
-0.007995442487299442
-0.012923462316393852
0.06198010966181755
-0.03918616101145744
0.04353732243180275
0.04108864441514015
-0.031234316527843475
0.03122733347117901
-0.03320423141121864
-0.017067458480596542
-0.06697358191013336
-0.044353652745485306
-0.046844836324453354
0.018220705911517143
0.09195834398269653
0.03337907791137695
0.07188300788402557
0.11214356124401093
0.021600067615509033
-0.09041115641593933
-0.016532428562641144
0.02257794700562954
-0.013942265883088112
0.04634758457541466
0.049370694905519485
0.059316281229257584
-0.03882954269647598
-0.07840779423713684
0.021033726632595062
-0.016727065667510033
0.043472424149513245
0.049557723104953766
-0.03886467218399048
0.03640992194414139
0.037782009690999985
0.0796666368842125
0.07854651659727097
0.017562806606292725
0.056975074112415314
0.03400169312953949
0.07358325272798538
0.0639609843492508
-0.05893530696630478
-0.046826280653476715
0.04816192388534546
-0.05009905993938446
0.05358677729964256
-0.06336841732263565
0.003600803203880787
-0.10574055463075638
0.10405507683753967
0.1274714469909668
0.010592958889901638
0.03340749442577362
-0.01961243338882923
-0.0817214697599411
-0.045001737773418427
-0.12463933229446411
-0.09984872490167618
-0.12420658022165298
-0.009842862375080585
-0.044334251433610916
-0.013427184894680977
-0.021632293239235878
-0.08028975129127502
-0.08006633818149567
-0.03250686824321747
-0.03012487106025219
0.07516071945428848
-0.0785079151391983
0.02849971130490303
-0.0869191512465477
0.022817399352788925
0.019814439117908478
0.023519743233919144
0.015063019469380379
0.11216273903846741
0.07729383558034897
0.09972643852233887
0.037230998277664185
-0.0356111004948616
-0.06374288350343704
-0.041491854935884476
0.039737168699502945
-0.11045435070991516
-0.07446140050888062
-0.12488262355327606
-0.039440229535102844
-0.0008095178636722267
0.043869540095329285
-0.03345835208892822
-0.0577787309885025
-0.06569815427064896
-0.057660527527332306
-0.05684478580951691
-0.045644257217645645
-0.08113029599189758
0.047618187963962555
-0.06457271426916122
0.015016192570328712
-0.04853595793247223
0.05852918326854706
0.05709732696413994
0.03941655158996582
0.18197596073150635
0.027182651683688164
0.022193312644958496
0.08991126716136932
0.001333516906015575
-0.08665502816438675
-0.11298255622386932
-0.05711120739579201
-0.16043488681316376
-0.09834498167037964
-0.059869322925806046
-0.01998934894800186
-0.05719669535756111
0.014553257264196873
-0.06218930333852768
-0.047004975378513336
-0.0760173499584198
-0.013362519443035126
0.03277772665023804
-0.03322545066475868
-0.03367363288998604
-0.06692252308130264
0.04567919671535492
0.03409172222018242
-0.08386579900979996
0.06953565031290054
-0.016146937385201454
0.17985917627811432
0.0718078538775444
0.07534556835889816
-0.09273920953273773
-0.02372855134308338
-0.030737705528736115
-0.07160254567861557
-0.09560582786798477
-0.1258985847234726
-0.13502594828605652
-0.09729984402656555
-0.08481236547231674
-0.0976465716958046
-0.136705681681633
0.033758558332920074
-0.027973173186182976
-0.03792924806475639
0.06833074241876602
-0.057065460830926895
-0.041452791541814804
0.06506546586751938
-0.0762171819806099
-0.0823163092136383
-0.052743006497621536
-0.043011538684368134
-0.07957364618778229
0.04339904710650444
0.01768610253930092
0.14689423143863678
0.022278130054473877
0.017232609912753105
-0.1358615756034851
-0.014449822716414928
-0.09874247014522552
-0.125692218542099
-0.12965552508831024
-0.10042531043291092
-0.0526774562895298
-0.05782492086291313
-0.01683514378964901
0.01246450375765562
-0.015354027040302753
-0.050848010927438736
0.0436234176158905
0.06459883600473404
0.041132573038339615
0.08197956532239914
-0.0708993449807167
0.07092735171318054
-0.06293831020593643
0.01456565223634243
0.029788512736558914
-0.10169867426156998
-0.035529617220163345
0.0013783419271931052
-0.0042719910852611065
0.08397077769041061
-0.06176495924592018
0.0224210936576128
-0.003631188999861479
-0.00976880919188261
0.03782245144248009
-0.08245164155960083
-0.03791629523038864
0.009703634306788445
0.10931268334388733
-0.006642782129347324
0.09717696905136108
0.07042139768600464
0.013771507889032364
0.07059626281261444
0.05096668377518654
0.05072878301143646
-0.030535094439983368
0.055640142410993576
-0.04714813083410263
-0.0267482977360487
-0.07056998461484909
0.04748298227787018
-0.06061968952417374
-0.02842695266008377
0.06308130919933319
-0.04388541355729103
-0.004541972652077675
-0.045318081974983215
-0.02830868400633335
0.06297781318426132
-0.07859033346176147
0.04953938350081444
0.08301609754562378
-0.06708277761936188
-0.014977038837969303
0.07148915529251099
0.025333784520626068
0.08684252202510834
0.029160508885979652
-0.013999976217746735
0.03131110593676567
-0.03531797602772713
0.044925507158041
-0.009694753214716911
-0.017988640815019608
-0.03010941855609417
-0.061646584421396255
-0.039575181901454926
-0.06517867743968964
-0.053204942494630814
0.10574952512979507
0.10978355258703232
0.0820925235748291
-0.04384981468319893
0.045474257320165634
0.002999332267791033
-0.0185930747538805
-0.05682319030165672
-0.020699677988886833
0.1076861023902893
0.09234018623828888
0.026208767667412758
0.037380363792181015
0.11471565812826157
0.14847306907176971
0.1303301602602005
0.05066164955496788
0.002358231460675597
0.08112853020429611
0.05202276259660721
0.07279419898986816
0.02320033125579357
-0.045707061886787415
0.011059570126235485
0.07221101224422455
0.003571450477465987
0.002622670726850629
0.04408690333366394
0.006960249040275812
0.10881396383047104
0.11697863042354584
-0.025432202965021133
0.03524290397763252
0.02694862335920334
0.027321994304656982
0.0653662458062172
0.022007616236805916
0.12399264425039291
0.06539842486381531
-0.015501006506383419
0.11666231602430344
0.16484913229942322
0.12020522356033325
0.01367162074893713
0.0652974471449852
0.081093430519104
-0.03959421068429947
-0.055156927555799484
0.023959580808877945
-0.031904853880405426
0.006306510418653488
-0.06221623346209526
-0.053261276334524155
0.08094687759876251
0.05192476883530617
0.04746563732624054
0.06464917212724686
-0.09982547163963318
-0.10513116419315338
0.015612835064530373
0.001312114531174302
-0.09768610447645187
-0.0021447797771543264
0.004479255061596632
-0.060066692531108856
-0.06873295456171036
0.0953037291765213
0.14580316841602325
0.10281020402908325
0.040568772703409195
-0.01883579045534134
0.11315514147281647
-0.058075230568647385
0.054802801460027695
-0.027494486421346664
-0.020403197035193443
-0.04473193734884262
0.06147848814725876
-0.07826153934001923
0.017437051981687546
-0.002159948693588376
0.008928514085710049
0.023158621042966843
-0.015344887971878052
-0.10579938441514969
-0.030719613656401634
-0.025805791839957237
-0.0627116709947586
0.028531992807984352
-0.1077837273478508
-0.0792551189661026
0.02638903446495533
-0.07737797498703003
-0.06090375781059265
0.03302588686347008
-0.05648734048008919
0.04653465002775192
-0.0263261329382658
-0.03753700479865074
0.02051253244280815
0.04911976307630539
0.053853534162044525
-0.08372511714696884
-0.028498297557234764
0.06928689032793045
0.016257598996162415
0.0621187686920166
-0.0756736472249031
-0.06252674758434296
0.051621049642562866
-0.06306881457567215
0.020851030945777893
-0.05951907858252525
0.01127607747912407
-0.02573271468281746
-0.004624437540769577
-0.078459233045578
-0.09368176758289337
-0.038867007941007614
-0.11238116770982742
-0.04876391217112541
-0.01740202121436596
-0.061954960227012634
-0.03177965432405472
0.031790878623723984
-0.010938137769699097
-0.048689935356378555
0.014434389770030975
-0.037685662508010864
0.014667805284261703
-0.06145339831709862
0.032764166593551636
-0.015218010172247887
0.017530634999275208
-0.048519790172576904
0.025698963552713394
-0.043116286396980286
-0.05847156047821045
0.07039644569158554
-0.0857790857553482
0.013019670732319355
0.07366319000720978
-0.01813817396759987
0.07233817875385284
0.08117426931858063
-0.03367271646857262
0.06344199925661087
0.04058888182044029
0.11078757792711258
0.11899860948324203
0.0258556567132473
0.03548811376094818
-0.06248719245195389
-0.060013312846422195
0.052615053951740265
0.06805248558521271
-0.007516697980463505
0.038999345153570175
-0.03504851087927818
0.004194808658212423
0.03324953839182854
0.019282056018710136
0.012827832251787186
-0.04041202366352081
0.03742975741624832
0.036683108657598495
0.033560752868652344
0.0840444564819336
0.07088694721460342
-0.06097288429737091
0.05706419050693512
-0.049565043300390244
-0.06154853105545044
-0.08633516728878021
0.053690098226070404
0.0837513655424118
0.001719628693535924
0.05691850185394287
0.009723181836307049
0.01835637539625168
-0.05753004923462868
-0.03788963705301285
0.06520059704780579
0.020314496010541916
0.04308959096670151
-0.066806361079216
-0.06548704206943512
-0.04704825580120087
-0.023735741153359413
-0.04742308333516121
-0.01628481224179268
-0.036662645637989044
0.025679368525743484
-0.07396754622459412
0.07457315921783447
-0.00435434328392148
-0.047948695719242096
0.06962939351797104
0.024449050426483154
-0.08205101639032364
0.04995959997177124
-0.03580392897129059
0.03726639226078987
-0.04956347495317459
0.030607258901000023
0.00588788278400898
-0.00033634650753811
0.01688610576093197
-0.01012368593364954
0.07075170427560806
0.05045884847640991
-0.01516355574131012
-0.014199521392583847
0.066432885825634
-0.0026313024573028088
-0.006343512330204248
-0.08483769744634628
-0.049521129578351974
-0.011556195095181465
0.06602787971496582
0.03382948786020279
-0.0009349171887151897
0.03203006833791733
0.014829740859568119
-0.05244777351617813
-0.08732029050588608
0.07752110809087753
0.03555471822619438
-0.013273188844323158
-0.07297033071517944
-0.06174139305949211
-0.07941459864377975
-0.025499451905488968
0.003829417983070016
-0.06017955020070076
-0.03183848783373833
-0.08941005915403366
0.07225441932678223
-0.08087523281574249
0.02743794210255146
-0.07029231637716293
0.06485174596309662
0.014661978930234909
-0.08383943885564804
-0.07983356714248657
0.03480847552418709
0.06736371666193008
-0.05769629403948784
0.05018848925828934
-0.04111446440219879
0.03652788698673248
0.0859130397439003
0.07785935699939728
-0.06626483052968979
-0.028641387820243835
-0.011442508548498154
0.06463510543107986
0.07424084097146988
-0.06534317135810852
-0.007775073405355215
0.03802333027124405
-0.08155746757984161
-0.07578862458467484
0.009933707304298878
-0.014529962092638016
-0.04183446988463402
0.05659151077270508
0.057285603135824203
0.04424988105893135
-0.0385822057723999
0.02347736433148384
-0.0010832466650754213
-4.606059883371927e-05
0.022064363583922386
0.043496470898389816
0.003489767201244831
-0.015331508591771126
-0.04707905277609825
0.08672603964805603
0.05388440191745758
-0.012467263266444206
-0.014788087457418442
-0.05089405179023743
-0.04102753475308418
0.007838820107281208
0.019949087873101234
0.06078612431883812
-0.04038548842072487
-0.007422171533107758
-0.10710014402866364
0.01147438958287239
0.030783040449023247
0.010998338460922241
-0.0999431163072586
0.0017546345479786396
-0.07929755747318268
-0.07229004055261612
-0.0891115590929985
-0.06053141877055168
-0.05949173867702484
0.0745520070195198
-0.07850396633148193
-0.0736711174249649
0.02591356448829174
0.08200155943632126
0.037827931344509125
-0.017292501404881477
-0.06230646371841431
0.029397431761026382
-0.0035745794884860516
-0.01634329743683338
0.0032729993108659983
-0.07069512456655502
0.05980902910232544
0.03664318099617958
0.009109782986342907
-0.005399474408477545
-0.07118308544158936
-0.11481469869613647
-0.01358810719102621
0.04259294643998146
-0.054888512939214706
-0.05984923243522644
0.04982032999396324
0.07660161703824997
-0.08518391102552414
0.005922457203269005
0.02138177491724491
0.014324834570288658
0.0265936441719532
0.0029714161064475775
0.08448284864425659
-0.07841969281435013
-0.011395027860999107
-0.0845596194267273
-0.09296578168869019
-0.008430205285549164
0.06808595359325409
-0.0057288347743451595
-0.03529456630349159
0.003257871838286519
-0.005892995744943619
-0.04900112748146057
-0.07151056081056595
-0.018182186409831047
-0.11258549988269806
0.014482401311397552
-0.00416482612490654
0.015338717959821224
-0.046829648315906525
-0.10215440392494202
0.0849456712603569
0.10579279065132141
0.10596872866153717
-0.03040858916938305
0.057872019708156586
0.03064369596540928
0.01607087254524231
-0.046462737023830414
-0.07931932061910629
0.02383875474333763
0.060628488659858704
0.07831715792417526
0.007439545355737209
0.08435183763504028
-0.023901209235191345
0.033171046525239944
-0.06631393730640411
0.06318628042936325
-0.11578533053398132
-0.0847536027431488
0.038266804069280624
-0.03008810244500637
0.023049402981996536
-0.1133299395442009
-0.05480637028813362
-0.004287904128432274
-0.10338543355464935
-0.09690059721469879
-0.05306585878133774
0.09712829440832138
0.07781676948070526
0.08877574652433395
0.04279092326760292
0.07302309572696686
0.08316508680582047
0.057827841490507126
0.07073570787906647
0.00614674249663949
0.011152571998536587
0.001013950677588582
-0.014828292652964592
0.033309224992990494
-0.056108973920345306
-0.04962477833032608
-0.04647083207964897
-0.04627705365419388
-0.0708116739988327
-0.004449993371963501
-0.09747666865587234
-0.05445728823542595
-0.12123462557792664
-0.09034150838851929
-0.07428084313869476
-0.11631219834089279
-0.044528212398290634
-0.12564711272716522
0.029807597398757935
-0.04162004590034485
0.06756972521543503
0.01574796438217163
-0.07641343027353287
-0.05531406030058861
-0.003317010821774602
-0.05016253888607025
-0.07669371366500854
0.01767522469162941
-0.07299567013978958
-0.004947153385728598
0.011615335009992123
-0.027821244671940804
0.040515799075365067
0.04762193188071251
-0.11337721347808838
0.02264324389398098
-0.05760261416435242
-0.08477071672677994
-0.05766953155398369
-0.14046445488929749
-0.10142049193382263
-0.12155546993017197
-0.12568460404872894
-0.13980937004089355
-0.15169276297092438
-0.01183303352445364
0.0574626550078392
0.07016484439373016
-0.018539564684033394
0.07740681618452072
-0.05865063890814781
-0.06314457952976227
0.06098834052681923
0.057863377034664154
-0.04522766172885895
0.06286729872226715
0.06978427618741989
-0.03995169326663017
0.11074158549308777
0.06734458357095718
-0.047253165394067764
0.02597333863377571
0.010277124121785164
-0.032403621822595596
-0.12680847942829132
-0.09440595656633377
-0.06207076460123062
-0.0207846499979496
-0.03423550724983215
-0.03139879181981087
-0.11625673621892929
-0.12433027476072311
0.054921116679906845
0.014825762249529362
-0.024856170639395714
-0.040095165371894836
-0.05883786454796791
-0.023802202194929123
-0.01962464675307274
-0.08552701771259308
0.04054446890950203
0.01137405913323164
0.0018362175906077027
0.03437814489006996
-0.004320182837545872
0.0853782594203949
-0.06804747134447098
-0.05426836013793945
-0.06428592652082443
-0.014833548106253147
0.0035319807939231396
-0.07989391684532166
-0.017345018684864044
0.018311627209186554
0.038971271365880966
0.0036842881236225367
0.06777902692556381
0.009639471769332886
0.035438138991594315
-0.07662627846002579
0.0642295852303505
0.00948099885135889
-0.008833701722323895
0.008042930625379086
0.02769216150045395
0.02376837097108364
-0.02902567759156227
0.04871289059519768
0.04754675179719925
0.022347722202539444
0.008056421764194965
0.00448200386017561
-0.06745181232690811
0.06720292568206787
-0.012604058720171452
-0.07807286083698273
-0.03456120565533638
-0.02217783033847809
-0.020623335614800453
-0.008033477701246738
-0.03614524006843567
0.02005675621330738
0.13622473180294037
0.17410437762737274
0.11933743208646774
0.11699797958135605
-0.015461653470993042
0.016639789566397667
-0.044918641448020935
0.06796907633543015
0.007117345929145813
-0.024985583499073982
-0.05707328021526337
-0.11609342694282532
-0.018689729273319244
-0.0003275830822531134
-0.056093476712703705
0.05015665292739868
0.012647447176277637
-0.06342540681362152
0.06262517720460892
-0.028482483699917793
-0.010108440183103085
-0.025111787021160126
-0.1558786928653717
-0.08642662316560745
-0.0187268927693367
0.05994860455393791
0.03458155319094658
0.16174261271953583
0.2423814833164215
0.15019558370113373
0.04923483356833458
0.0952681377530098
0.05380745604634285
0.008760979399085045
-0.07266463339328766
0.0406409315764904
-0.07010355591773987
0.09251661598682404
0.0003917263529729098
-0.03367598354816437
-0.017746130004525185
0.09348557889461517
-0.03722954913973808
-0.07722165435552597
0.04558943584561348
-0.037025973200798035
0.07679807394742966
0.041009996086359024
-0.13298054039478302
0.02625942975282669
0.03239753469824791
-0.03556917607784271
0.06514684110879898
0.02485276386141777
0.12814868986606598
0.19187408685684204
0.059186920523643494
0.04818642511963844
0.009178549982607365
0.05937155336141586
0.08144617825746536
-0.03441570699214935
0.06889956444501877
-0.02023686282336712
0.09808497875928879
0.012666608206927776
0.1387544572353363
0.027456136420369148
0.056279443204402924
0.004738922230899334
-0.012823954224586487
0.01281418465077877
-0.00726584205403924
-0.006689232308417559
-0.049714937806129456
0.01177405845373869
-0.019076447933912277
0.06600147485733032
-0.010533119551837444
0.05457666516304016
0.12931551039218903
0.1280289888381958
0.1635252982378006
0.10916560888290405
0.07450422644615173
0.0361480712890625
0.10355449467897415
0.12737591564655304
-0.026110602542757988
-0.015038585290312767
0.05682242289185524
0.056753020733594894
0.047994863241910934
0.10750558227300644
0.017111096531152725
0.06701943278312683
0.14160938560962677
0.11546611040830612
0.10452103614807129
-0.04180232807993889
-0.03678348287940025
0.059731028974056244
0.013948052190244198
-0.06011369824409485
0.07511290907859802
0.0754454955458641
0.11601324379444122
0.14374154806137085
0.05132841318845749
0.19530139863491058
0.06030955910682678
-0.05597536638379097
0.029896043241024017
0.020472055301070213
0.16898398101329803
0.08527590334415436
0.1414797604084015
0.060751598328351974
0.09356430917978287
0.0757947787642479
0.11668624728918076
0.093585304915905
0.11789347231388092
0.02989717200398445
-0.003103851340711117
-0.0059763421304523945
0.10708050429821014
0.03894716128706932
-0.059876952320337296
-0.04230627417564392
-0.055241722613573074
-0.056210216134786606
0.06121295690536499
-0.032994743436574936
0.08721345663070679
0.16044144332408905
0.11601882427930832
0.15070685744285583
-0.11387976258993149
-0.18221984803676605
-0.051120731979608536
0.09594128280878067
0.20718508958816528
0.14386291801929474
0.11109597235918045
0.2152819037437439
0.15736421942710876
0.1659241020679474
0.17460767924785614
0.22478444874286652
0.18474891781806946
0.11170375347137451
0.03697283938527107
0.020606951788067818
-0.06306085735559464
-0.013551472686231136
-0.031363844871520996
0.006286580115556717
-0.029235387220978737
0.0668017789721489
0.15342356264591217
0.1000785082578659
0.06842494755983353
-0.002246600342914462
-0.003811280010268092
-0.08588477224111557
-0.09222155809402466
-0.2076229453086853
-0.1286032795906067
0.0676991268992424
0.15617284178733826
0.11114750057458878
0.17204849421977997
0.04714007303118706
0.1817709505558014
0.10423722118139267
0.10081031173467636
0.1394001692533493
0.08690459281206131
0.09534808993339539
0.0794961079955101
0.10086796432733536
0.028430094942450523
-0.08091860264539719
0.00854210089892149
0.0003752299817278981
0.055566079914569855
0.03463440388441086
0.0220699030905962
0.10175714641809464
0.09621540457010269
0.10436619818210602
0.01251333486288786
-0.09938249737024307
-0.25046873092651367
-0.12705256044864655
-0.09971989691257477
-0.07163075357675552
0.06936728209257126
0.11877250671386719
0.10449718683958054
-0.009389516897499561
0.011494878679513931
-0.015324682928621769
0.026946770027279854
0.10994096100330353
-0.06430086493492126
-0.017306659370660782
0.05138707533478737
-0.04347657412290573
-0.004760161507874727
0.007345433812588453
-0.07523130625486374
0.05351048707962036
-0.06549288332462311
0.0798012763261795
0.11485003679990768
0.034915268421173096
-0.03970356285572052
0.04711494222283363
-0.006727402098476887
-0.16742132604122162
-0.06453541666269302
-0.17279022932052612
-0.16866831481456757
-0.0992651954293251
-0.07684704661369324
0.07104367017745972
-0.07497747242450714
-0.01447082869708538
-0.06345271319150925
-0.10802991688251495
0.02597791515290737
-0.08693655580282211
0.005151860881596804
-0.022572873160243034
-0.017758723348379135
0.08355319499969482
-0.07103089988231659
-0.019605599343776703
0.02682611346244812
-0.00791680347174406
-0.018898120149970055
0.05593794956803322
0.08167985826730728
0.004622509237378836
-0.01765083149075508
0.06504326313734055
-0.09574775397777557
-0.14907404780387878
-0.08044625073671341
-0.02521500363945961
-0.11342708021402359
-0.12924392521381378
-0.0928037166595459
-0.027213403955101967
-0.048392221331596375
-0.09472272545099258
-0.17069216072559357
-0.09773584455251694
-0.1574898660182953
-0.03094056062400341
-0.05863860622048378
-0.09897348284721375
-0.07501444220542908
-0.09946930408477783
0.03227056562900543
-0.027997097000479698
0.03787766396999359
-0.019487876445055008
-0.04245089367032051
-0.03716134652495384
-0.0063566360622644424
0.0709887221455574
0.03567967936396599
-0.07563501596450806
0.027020888403058052
-0.09517882019281387
-0.1286793053150177
-0.051768213510513306
-0.0066009704023599625
-0.10541431605815887
-0.03521914780139923
-0.05060582607984543
-0.05499524623155594
-0.061960265040397644
-0.07597704976797104
-0.141214057803154
-0.07418166846036911
-0.06540530174970627
-0.08845894038677216
-0.03675398230552673
-0.004422463476657867
-0.04231151193380356
0.06797436624765396
-0.06810889393091202
-0.036220744252204895
0.009966060519218445
0.009039292111992836
0.03803563490509987
-0.06246078386902809
-0.06546434760093689
0.049219854176044464
-0.06572746485471725
0.0010652870405465364
0.006562425289303064
-0.04317031428217888
-0.05599072203040123
0.03935232758522034
-0.0033575696870684624
-0.13363833725452423
0.04431021586060524
0.018793543800711632
-0.04949158802628517
-0.1370498538017273
-0.061036210507154465
-0.10992913693189621
-0.04302943870425224
0.01392014604061842
0.004201879259198904
-0.06005009263753891
-0.011155113577842712
0.001103336806409061
0.07394019514322281
-0.007686679717153311
-0.0219651460647583
0.026634233072400093
-0.003115277737379074
-0.03570999577641487
0.06433858722448349
0.02047664299607277
0.036476150155067444
0.034572042524814606
-0.05179648846387863
-0.02002420835196972
-0.004301705397665501
-0.018435999751091003
-0.019740523770451546
-0.059004079550504684
-0.06320282071828842
-0.02853088639676571
0.04217549040913582
-0.017475850880146027
0.005782144609838724
0.028672829270362854
-0.0640125423669815
-0.005758737213909626
-0.010239152237772942
0.012767232954502106
-0.0537898875772953
0.061980001628398895
0.027290301397442818
0.0853370800614357
0.0021439616102725267
0.07156695425510406
0.06711672991514206
0.021093405783176422
-0.03523469343781471
-0.03501708805561066
-0.09237683564424515
-0.002124836202710867
-0.004552542697638273
0.041291505098342896
0.022422051057219505
-0.08040287345647812
-0.09188235551118851
0.04153520613908768
0.039008788764476776
0.003531714202836156
0.017589865252375603
-0.029384011402726173
-0.008201208896934986
-0.0719248577952385
0.023795178160071373
-0.07844284176826477
-0.08209288120269775
-0.07906826585531235
0.06936980038881302
-0.04086507484316826
-0.020343534648418427
-0.06762902438640594
0.007988671772181988
-0.07644868642091751
-0.014452805742621422
-0.00424321461468935
0.04070046916604042
-0.09729316085577011
-0.004395776428282261
-0.06528709828853607
0.031331535428762436
-0.0653943195939064
-0.09634863585233688
-0.06760818511247635
-0.0703749731183052
-0.12159566581249237
-0.1153661385178566
-0.05938268080353737
-0.13948078453540802
-0.013523571193218231
-0.10885301977396011
-0.044804759323596954
0.013305455446243286
0.057346977293491364
0.016725583001971245
0.013852087780833244
0.07105693966150284
-0.08060739934444427
-0.04424954578280449
0.04798625037074089
0.01948542334139347
-0.039529114961624146
-0.03753882646560669
-0.012211290188133717
-0.08422525227069855
-0.09227520227432251
-0.09587519615888596
0.05851936340332031
-0.06314879655838013
-0.026029668748378754
-0.031608130782842636
-0.06373105943202972
-0.07541079819202423
-0.13875919580459595
-0.06785755604505539
-0.12081471085548401
-0.023566506803035736
-0.02013458125293255
-0.0793955847620964
0.01744951121509075
-0.08118267357349396
0.06985164433717728
-0.025283660739660263
0.037349600344896317
0.06459352374076843
0.011268416419625282
-0.06524963676929474
-0.02697594091296196
-0.06243090704083443
0.05354174226522446
-0.04952970892190933
-0.0005734643200412393
-0.03659907728433609
-0.03730553016066551
-0.0033707518596202135
0.03803740814328194
0.03450954705476761
-0.0436389222741127
0.04607762023806572
0.0525091290473938
0.061936527490615845
0.01912631280720234
0.07372263818979263
0.033234965056180954
-0.023778753355145454
0.0710064247250557
0.030618170276284218
-0.03895239904522896
0.06243228167295456
0.08117769658565521
-0.07670632749795914
-0.010859008878469467
-0.05957305431365967
0.012751578353345394
-0.07422684878110886
0.042038556188344955
0.05533381178975105
-0.03381868079304695
0.07742442190647125
0.03697400167584419
-0.07630817592144012
0.07227975875139236
0.0210694819688797
0.0390908308327198
-0.06616738438606262
0.05022025480866432
-0.0800810307264328
0.04067346826195717
0.06263342499732971
0.08408087491989136
0.06632068008184433
0.003828332992270589
-0.0702129602432251
0.04036238417029381
-0.03806758299469948
0.01397883053869009
0.00023118210083339363
-0.08163153380155563
0.06957441568374634
0.019461041316390038
0.07132279127836227
-0.03624226897954941
-0.08668717741966248
-0.054417822510004044
0.020527515560388565
0.07452577352523804
-0.03296205401420593
-0.0067930701188743114
-0.07028774917125702
-0.04074389487504959
-0.08002037554979324
0.0406191386282444
0.027746031060814857
-0.07367022335529327
-0.016032710671424866
-0.01595601998269558
0.029214395210146904
-0.05208659544587135
-0.07180996239185333
-0.04667089506983757
-0.06673634797334671
0.0569504089653492
0.08480826020240784
0.014253856614232063
0.0006625239038839936
-0.05628218501806259
0.0728730708360672
0.021346665918827057
-0.015282494015991688
0.02578054741024971
-0.0794343650341034
0.04301103949546814
-0.04031268134713173
0.006223395466804504
-0.05750986188650131
-0.07867710292339325
0.023133404552936554
-0.05591562017798424
-0.03241242840886116
0.07322931289672852
-0.05503910034894943
0.054576970636844635
0.07112295180559158
0.06182738021016121
-0.08367506414651871
-0.013729887083172798
-0.06179263815283775
-0.03703764081001282
0.025392675772309303
-0.08115333318710327
-0.0882817879319191
-0.020263254642486572
0.018374575302004814
-0.0668826624751091
0.05216420814394951
0.08507412672042847
0.05233956128358841
-0.06455474346876144
0.0540037527680397
0.05940020829439163
0.04817977547645569
-0.012629611417651176
0.01232242677360773
0.01112551148980856
-0.060987863689661026
-0.03204745054244995
-0.04831293970346451
0.038061004132032394
0.06454671919345856
0.03206808865070343
0.06310419738292694
0.030461588874459267
0.010753066278994083
0.09301300346851349
-0.04194450005888939
-0.03375216946005821
-0.005798998288810253
0.0018548808293417096
-0.018590690568089485
0.05100672319531441
0.018855655565857887
-0.07116054743528366
0.07811515033245087
-0.05584008991718292
0.02174609899520874
0.07479241490364075
-0.08008935302495956
0.019948769360780716
0.031783390790224075
0.07230652868747711
0.04125039651989937
-0.08303999900817871
0.03044648841023445
0.05991000682115555
0.04062799736857414
-0.07480746507644653
-0.04070325568318367
-0.06767045706510544
-0.00552265252918005
-0.03309321030974388
-0.05369625240564346
-0.02998945116996765
0.09572954475879669
-0.01533109974116087
0.029921451583504677
-0.05923990532755852
0.008313418366014957
-0.035985067486763
0.00827570166438818
-0.08466187864542007
0.040038101375103
-0.045604437589645386
0.009022688493132591
-0.07359538227319717
-0.06309403479099274
-0.015417149290442467
-0.021122366189956665
-0.027537008747458458
-0.07131728529930115
-0.055858906358480453
-0.015076110139489174
0.006300228647887707
0.053600139915943146
-0.022944217547774315
-0.08514493703842163
0.07110056281089783
-0.0704924464225769
-0.06181727722287178
0.028257271274924278
0.05665586516261101
0.06748129427433014
-0.02185281179845333
0.09081720560789108
0.08096666634082794
-0.03774171695113182
0.01319772470742464
-0.011006079614162445
0.010045234113931656
-0.04995984584093094
0.07307824492454529
0.013843569904565811
-0.051777735352516174
0.07555363327264786
-0.006798034068197012
0.044539887458086014
0.06649840623140335
0.01793849840760231
-0.07348193228244781
0.015944844111800194
-0.0842878594994545
-0.0769682377576828
0.06735403835773468
-0.013844611123204231
-0.06132420524954796
-0.09330370277166367
-0.05637405067682266
-0.12306278198957443
-0.004695866256952286
0.009786717593669891
0.01644091308116913
0.08557087182998657
0.039443500339984894
-0.04728738218545914
-0.08012855798006058
-0.07228436321020126
-0.0637844055891037
0.06216037645936012
0.015791084617376328
-0.06542158871889114
-0.03615807741880417
0.07388563454151154
-0.06307557970285416
-0.076240673661232
0.08013079315423965
-0.005254632793366909
0.023367300629615784
-0.026326771825551987
-0.08497277647256851
0.03614572808146477
-0.003758399747312069
-0.036521319299936295
-0.08484311401844025
-0.014094918966293335
-0.10473830997943878
-0.04320109263062477
-0.0875924825668335
0.09273133426904678
0.018319804221391678
0.08476977795362473
0.07704271376132965
0.07434932887554169
0.04603872820734978
-0.05228453129529953
0.06553122401237488
-0.05230902135372162
-0.018498390913009644
-0.04050194099545479
-0.07636408507823944
-0.0707612931728363
-0.0556626170873642
0.03584903106093407
0.01792125590145588
0.025774270296096802
-0.016937365755438805
0.049225177615880966
0.028144972398877144
-0.07548048347234726
-0.06587060540914536
-0.06153207644820213
-0.003944687079638243
-0.04383210465312004
-0.06743127107620239
-0.09971247613430023
-0.09578284621238708
0.05429237708449364
0.09910155832767487
0.03803586959838867
-0.043364450335502625
0.016191713511943817
-0.07341762632131577
0.004538938868790865
0.01663861982524395
0.02165265753865242
-0.0036165632773190737
0.007319415453821421
-0.005920116323977709
0.04547879844903946
-0.009741704910993576
0.081944040954113
0.014459527097642422
-0.059095002710819244
0.022840073332190514
-0.08426842838525772
0.06322302669286728
-0.005652399733662605
-0.09662828594446182
-0.0814925879240036
-0.09645988792181015
0.04062579199671745
0.014354502782225609
-0.07189477235078812
-0.05339715629816055
0.03306253254413605
0.03196707367897034
0.006849959958344698
0.05084919556975365
-0.011542673222720623
-0.07461564987897873
-0.043828316032886505
-0.09583921730518341
-0.0929107666015625
-0.0028931619599461555
0.007555775810033083
-0.04651283472776413
-0.00037318537943065166
-0.06935492157936096
0.07908899337053299
0.07411817461252213
-0.0891244187951088
-0.0806470662355423
-0.09004904329776764
0.05113998055458069
-0.054462507367134094
-0.02727399207651615
0.07014326751232147
-0.09554115682840347
-0.03926405683159828
0.009132303297519684
0.0266661886125803
0.005837330128997564
0.04670928791165352
0.12993338704109192
0.09162109345197678
-0.0200294628739357
-0.0373016782104969
-0.030310312286019325
0.015560896135866642
-0.03094305470585823
0.004865594208240509
0.08621691912412643
-0.010578352957963943
-0.03128832206130028
-0.074571892619133
-0.01899506337940693
-0.0420803539454937
-0.05531108006834984
0.05363796651363373
-0.020846614614129066
0.06892136484384537
-0.07084831595420837
-0.07303035259246826
0.06133027374744415
-0.008214564062654972
-0.09871327877044678
-0.03391387686133385
-0.08736752718687057
-0.04667673259973526
-0.03478029742836952
-0.06443367153406143
0.12428800761699677
0.10982725024223328
-0.005673082545399666
-0.006382834166288376
-0.04003632068634033
-0.023989267647266388
0.04847536236047745
-0.05162610858678818
0.04132143035531044
0.07797163724899292
-0.06332172453403473
-0.06684914231300354
-0.06937825679779053
0.03704063221812248
-0.01575314626097679
-0.08494758605957031
-0.021857889369130135
-0.038439929485321045
-0.016228972002863884
0.07682458311319351
-0.017652668058872223
-0.046509966254234314
0.016435522586107254
-0.015156682580709457
-0.09641928970813751
-0.06257873773574829
-0.050292007625103
0.010387461632490158
-0.016933362931013107
-0.022418638691306114
0.07214871048927307
-0.010948323644697666
-0.03541912883520126
-0.00016836340364534408
-0.0814293846487999
-0.02665792964398861
-0.014267916791141033
-0.013662136159837246
-0.04884735122323036
0.04621288180351257
0.00030380714451894164
0.07782626152038574
-0.0031626583077013493
0.014292647130787373
0.013632905669510365
-0.06075713038444519
0.0650315210223198
0.09832844883203506
-0.06364994496107101
-0.01512785255908966
0.037327736616134644
0.05421191453933716
-0.02851955033838749
-0.0016619388479739428
0.003892688313499093
-0.022151408717036247
0.06049542874097824
0.06508200615644455
0.0071926480159163475
-0.043972380459308624
0.032133858650922775
0.015283798798918724
-0.05196518823504448
-0.0589396134018898
-0.03331582620739937
-0.07704026997089386
-0.06860177963972092
0.0661921426653862
0.06803066283464432
-0.04172833636403084
-0.07309433817863464
-0.023194365203380585
-0.07187553495168686
-0.0056283799931406975
0.030374841764569283
-0.045035287737846375
0.01464996486902237
-0.05284132435917854
0.10044065117835999
-0.008445554412901402
-0.015798546373844147
0.04599481076002121
0.030292551964521408
-0.03050769492983818
0.0205356664955616
0.006324837449938059
0.005288496147841215
-0.09692319482564926
-0.05092494562268257
-0.04429633542895317
0.049488335847854614
0.05623101815581322
0.0005383897223509848
0.0199249479919672
0.04544347524642944
-0.07867459207773209
-0.028323456645011902
-0.06721843779087067
-0.031921811401844025
-0.06828656047582626
-0.00023531490296591073
0.07189071923494339
-0.02247881144285202
0.013898193836212158
0.012199736200273037
0.012610126286745071
-0.032493047416210175
0.051003165543079376
0.058682359755039215
0.06437857449054718
-0.010317961685359478
0.0003949281817767769
-0.01662878319621086
0.10988762974739075
0.015825506299734116
0.0440656840801239
0.01645190641283989
0.011336336843669415
0.0752858817577362
0.04420701041817665
0.07065489888191223
-0.06422658264636993
-0.03588185831904411
0.056349098682403564
0.06272414326667786
-0.08240661770105362
-0.08256975561380386
0.0475914403796196
-0.05458493158221245
0.008000146597623825
0.03022126480937004
0.0635930523276329
0.03536880388855934
0.0640050619840622
0.038126565515995026
0.06512898206710815
-0.049167025834321976
-0.0009447193006053567
-0.020649828016757965
0.10359945148229599
0.06308452785015106
0.08143646270036697
0.05113571137189865
0.030721213668584824
0.07878635823726654
0.04992396757006645
-0.07533276826143265
0.008667866699397564
-0.04020541533827782
0.04736129939556122
0.05229998752474785
-0.046042393893003464
0.06078599765896797
0.00949925184249878
-0.07791405916213989
-0.017978204414248466
0.026702355593442917
0.017708925530314445
-0.022571396082639694
0.02538522705435753
-0.04579414799809456
-0.022694513201713562
-0.015083479695022106
0.017672644928097725
0.05036410316824913
0.024234117940068245
-0.0188834760338068
-0.04215864837169647
-0.01027909480035305
-0.02230980433523655
-0.04361739754676819
-0.07693897187709808
-0.09126283973455429
-0.027552030980587006
-0.07231713086366653
0.06428158283233643
-0.029107889160513878
-0.08829089999198914
0.014696500264108181
-0.016751891002058983
-0.02561827376484871
-0.016135985031723976
-0.059600453823804855
-0.04157761111855507
0.03828425332903862
-0.0018690190045163035
0.005223649553954601
0.07495058327913284
-0.004687725566327572
0.03866301849484444
-0.04631245508790016
0.06601908057928085
0.01164101529866457
-0.07205049693584442
0.01803424581885338
0.06923931837081909
0.0017845662077888846
-0.027826881036162376
-0.03536727651953697
-0.08389230817556381
0.07466739416122437
0.04135136306285858
0.0643002912402153
-0.01237856037914753
0.05165999010205269
-0.013299265876412392
0.01790689118206501
-0.08316735923290253
0.02677367813885212
0.04936854541301727
-0.045849449932575226
0.0032376900780946016
0.04497373849153519
-0.011795859783887863
-0.0696689710021019
-0.054941076785326004
0.10384712368249893
-0.04027313366532326
0.0025655680801719427
-0.034593161195516586
-0.027539772912859917
0.052774813026189804
-0.04008093476295471
-0.015185481868684292
0.00952740479260683
0.03985240310430527
-0.017460322007536888
-0.06234656274318695
-0.070896215736866
0.051595769822597504
-0.026465876027941704
0.002954032737761736
0.0894748717546463
0.04815054312348366
-0.05999842658638954
0.0005904627614654601
0.046508438885211945
0.06203676387667656
-0.04756829887628555
0.022038986906409264
-0.0598684623837471
0.05679302662611008
0.040062613785266876
-0.04891166836023331
-0.026006652042269707
-0.041257116943597794
-0.06259576231241226
0.008798562921583652
0.03984719142317772
-0.011019289493560791
-0.06419876962900162
0.05804114416241646
0.0018658059416338801
-0.019983598962426186
0.07983116805553436
0.09074141085147858
0.019818177446722984
0.05110868811607361
-0.07751451432704926
-0.04761683568358421
0.019261227920651436
-0.0515383780002594
0.0355897881090641
0.07685846835374832
0.01515235099941492
-0.025664355605840683
-0.04135461151599884
-0.016881288960576057
-0.047285500913858414
-0.012402951717376709
0.06674399971961975
-0.0022233009804040194
0.06386137008666992
-0.09432252496480942
-0.05830405279994011
0.03343775495886803
-0.11879138648509979
-0.015147353522479534
-0.020461883395910263
0.04934794828295708
-0.043894875794649124
0.006367194000631571
0.052780840545892715
0.03692410886287689
0.0291140116751194
-0.05849174037575722
-0.0638904720544815
-0.07627829164266586
-0.08160987496376038
-0.04732075706124306
-0.04692988097667694
0.08319205790758133
-0.05358947068452835
-0.028242764994502068
0.0036507153417915106
0.07663122564554214
-0.0701485201716423
0.0336730070412159
-0.04622121900320053
-0.072716124355793
0.054911527782678604
-0.08560527861118317
-0.06802163273096085
-0.00972455833107233
0.021915806457400322
-0.0407525859773159
0.03166811540722847
-0.06778327375650406
-0.07732591778039932
0.042145151644945145
0.012840806506574154
0.030819343402981758
0.07608296722173691
0.08973824232816696
-0.07206818461418152
-0.03509920462965965
0.05875948816537857
-0.00011476690997369587
0.0005536968819797039
0.08499991148710251
0.05570469796657562
0.062155019491910934
0.017496027052402496
0.03489543870091438
0.077639639377594
-0.05021427571773529
-0.03669849783182144
-0.06250020861625671
0.035412926226854324
-0.07337778806686401
-0.09332458674907684
-0.014570528641343117
0.04670785367488861
-0.029606245458126068
-0.06713639944791794
-0.014781730249524117
0.06360448896884918
-0.07089255750179291
0.014854582957923412
0.08745300024747849
-0.06561803817749023
0.021842658519744873
0.022560633718967438
0.004610431380569935
0.02277553454041481
-0.032819200307130814
-0.05741387605667114
0.005120900459587574
0.0697350725531578
0.04467478394508362
-0.018311478197574615
0.03129320964217186
0.0646909847855568
-0.052429500967264175
0.0539388507604599
0.04078097641468048
-0.060200296342372894
-0.05052974820137024
-0.036413952708244324
-0.06549567729234695
-0.07695713639259338
0.037367235869169235
-0.08770814538002014
-0.07491171360015869
-0.0014939444372430444
-0.08300114423036575
0.08833229541778564
-0.02824501506984234
-0.07006042450666428
0.04223804920911789
0.05881473049521446
-0.03910844773054123
-0.06280757486820221
0.07747498154640198
0.013824083842337132
-0.08635317534208298
0.044353120028972626
-0.04102041944861412
-0.014574730768799782
0.032798297703266144
-0.06428692489862442
0.025919770821928978
0.06518998742103577
0.07816039025783539
0.016528528183698654
-0.024444546550512314
0.04556426405906677
0.015303346328437328
-0.08271022886037827
-0.08753379434347153
-0.025541294366121292
-0.05222632363438606
0.02063560299575329
0.038132209330797195
0.07193397730588913
-0.05129605531692505
-0.03426853194832802
-0.07811186462640762
-0.0452611930668354
0.025233184918761253
-0.03806217387318611
-0.04195521026849747
0.015219246968626976
-0.022310448810458183
0.010384338907897472
0.017202438786625862
-0.053158462047576904
-0.016802456229925156
0.035869281738996506
-0.0517614372074604
-0.010436148382723331
0.0613790899515152
0.005132462829351425
-0.012846440076828003
-0.017810234799981117
0.0347360335290432
-0.021056370809674263
0.04272787272930145
-0.08806072920560837
0.052769146859645844
-0.02464008331298828
0.05114572495222092
-0.04444170370697975
-0.03358735144138336
0.04760243743658066
-0.03335745260119438
0.06144044175744057
0.008911337703466415
0.03104867972433567
-0.025763090699911118
-0.06271788477897644
-0.0702800527215004
-0.08548665046691895
0.06327881664037704
-0.055043186992406845
-0.06759621202945709
0.010767873376607895
-0.05531300604343414
-0.07383479923009872
0.08658664673566818
0.06495723128318787
0.029004504904150963
-0.00760728819295764
-0.005624414421617985
-0.06997618079185486
-0.06688883900642395
-0.010051042772829533
0.004002423491328955
0.08018352836370468
0.037830062210559845
0.037288930267095566
-0.08492138236761093
0.015014243312180042
-0.08364711701869965
-0.062396299093961716
-0.061993081122636795
0.061682622879743576
0.05424630269408226
-0.024547141045331955
-0.02295054867863655
0.003966575022786856
-0.00881833303719759
-0.06452338397502899
-0.04936794191598892
0.06247478350996971
-0.003012510947883129
0.0659029558300972
0.07638871669769287
0.012417162768542767
0.05501122400164604
-0.03507833555340767
-0.04849760979413986
-0.0733865275979042
0.05170939862728119
0.03899819776415825
0.04218844696879387
-0.02493913285434246
-0.0014389646239578724
-0.03590217977762222
0.022532714530825615
-0.03712310269474983
-0.02151583880186081
-0.028293171897530556
-0.07401745021343231
-0.012952735647559166
0.04736420512199402
-0.022168077528476715
0.08317466080188751
-0.021403074264526367
-0.07368685305118561
-0.036957889795303345
0.025363536551594734
0.08116605877876282
-0.0599096454679966
-0.0631403997540474
-0.07216396182775497
0.04851600155234337
-0.06615536659955978
-0.04633249342441559
0.02486751601099968
-0.07772964239120483
-0.025603601709008217
-0.08065952360630035
-0.06738981604576111
-0.01569589227437973
-0.009855118580162525
0.020192885771393776
0.016377652063965797
0.0806569904088974
-0.057578980922698975
0.029730593785643578
-0.032780975103378296
0.0622272789478302
0.011168155819177628
0.01687929593026638
-0.03472084179520607
0.001591316657140851
0.07394511997699738
0.020702214911580086
0.0039007519371807575
0.01591593399643898
0.046699825674295425
-0.004786077421158552
0.03505895286798477
0.02744671329855919
-0.04160613566637039
-0.08003018796443939
-0.07408101856708527
0.037455733865499496
0.02886376902461052
0.0633319541811943
-0.05509035661816597
0.01272033341228962
-0.02973121963441372
0.08557668328285217
-0.07982560992240906
-0.06304381787776947
0.05713079869747162
-0.018849560990929604
0.013086224906146526
-0.05385172739624977
-0.06414857506752014
0.07026057690382004
-0.006703060586005449
-0.022746512666344643
0.05220562592148781
-0.04598327353596687
-0.030986417084932327
0.05650151148438454
-0.021477749571204185
0.08189147710800171
0.06089917570352554
-0.059281881898641586
-0.012792298570275307
0.08825153857469559
0.05182521417737007
0.06365635246038437
0.0046348306350409985
0.06726288795471191
-0.004846811760216951
-0.058737631887197495
-0.006465071812272072
-0.02359357848763466
-0.0201095063239336
0.017974689602851868
0.058747440576553345
0.07198160886764526
0.006683372892439365
-0.04636147990822792
-0.07534143328666687
0.021028239279985428
-0.06582462787628174
-0.05814002454280853
-0.08575937896966934
0.018057910725474358
-0.013601702637970448
0.0588044747710228
0.0625857412815094
0.057472120970487595
-0.07456734776496887
-0.07738300412893295
0.008602919057011604
0.06528371572494507
0.0217901561409235
0.10167139023542404
0.05558643862605095
0.09146223962306976
-0.00655629625543952
0.005087545607239008
0.1169600561261177
0.08967024087905884
0.027753984555602074
-0.04805797338485718
0.0657089427113533
0.08566742390394211
-0.07051344960927963
-0.04067753255367279
-0.046031687408685684
-0.005822471342980862
0.07999420166015625
0.019678562879562378
-0.014550435356795788
-0.07864105701446533
-0.06376807391643524
-0.018960626795887947
0.002525530057027936
-0.032058943063020706
-0.09165778756141663
-0.01898930035531521
0.07338481396436691
-0.08248044550418854
0.00941447727382183
0.08016400039196014
0.06345408409833908
-0.017164766788482666
0.09801246970891953
0.07669958472251892
0.030505089089274406
-0.012165174819529057
-0.021769113838672638
0.043411266058683395
-0.026285478845238686
-0.01850150339305401
-0.025261379778385162
-0.05081692710518837
-0.04825378581881523
-0.07094350457191467
0.013368885032832623
-0.016869649291038513
0.015220092609524727
0.03144640848040581
0.07740478217601776
-0.08976123481988907
-0.10273250937461853
-0.05199575424194336
-0.06992964446544647
0.01169084757566452
-0.053790412843227386
-0.014359891414642334
-0.047301728278398514
0.0829777792096138
-0.07142481207847595
-0.01888069324195385
-0.043694306164979935
0.03934834524989128
0.01825093664228916
-0.025820152834057808
-0.032688967883586884
-0.014549098908901215
0.06739792227745056
0.007806416135281324
-0.013012674637138844
0.0029281943570822477
0.07404737174510956
-0.05033141374588013
-0.003715540748089552
-0.011268733069300652
0.018644703552126884
0.07366719841957092
0.05379066616296768
-0.02389572374522686
-0.06594336032867432
0.015516635961830616
0.06997179985046387
-0.048948198556900024
-0.021138647571206093
0.02263244055211544
-0.06638424843549728
-0.009495804086327553
0.029188502579927444
0.027109187096357346
0.039652008563280106
0.04062184318900108
-0.08526699244976044
0.07104159146547318
0.0207724180072546
0.06909053027629852
0.10010858625173569
0.027880042791366577
0.0847231075167656
-0.05341954156756401
-0.05327678099274635
0.0166984423995018
0.034276772290468216
-0.04232171177864075
0.028294788673520088
-0.03705621138215065
0.025823822245001793
0.011342414654791355
0.07043743133544922
0.04564110189676285
-0.05097292363643646
0.017622649669647217
-0.05475636571645737
0.020791085436940193
0.11906816810369492
-0.012450500391423702
0.00779989967122674
0.03684128075838089
0.0227360837161541
0.07405456155538559
0.019832750782370567
-0.00948144681751728
0.09663037210702896
0.10517509281635284
-0.03569366782903671
0.06658891588449478
0.08991280943155289
0.040853336453437805
-0.007756625302135944
0.047716960310935974
-0.07755596935749054
0.031826626509428024
-0.048863884061574936
-0.078773632645607
0.008712366223335266
0.01514583732932806
0.011464306153357029
0.04366518184542656
-0.02487943507730961
0.04313281178474426
0.018011216074228287
-0.03281807526946068
-0.004064299166202545
0.0462995208799839
0.02855239063501358
-0.002856208011507988
0.05520648509263992
0.03066997602581978
-0.009348826482892036
-0.009576329030096531
0.07519390434026718
0.11079130321741104
0.09636882692575455
0.07910918444395065
0.07105432450771332
-0.0491136759519577
-0.011559976264834404
-0.024636968970298767
-0.04743724688887596
0.043075866997241974
-0.02418866753578186
-0.04326726868748665
0.007942411117255688
0.06902430951595306
-0.01632525958120823
-0.0093866977840662
-0.04682809114456177
0.09825794398784637
-0.05210869014263153
-0.002133516827598214
-0.038433950394392014
0.02857363224029541
0.005953539162874222
0.049661409109830856
0.02633378840982914
0.006236816290766001
-0.11601593345403671
-0.09065144509077072
-0.041127759963274
0.06881795078516006
0.04616858810186386
0.01529900822788477
0.050378020852804184
-0.031281281262636185
0.07954693585634232
0.0745387002825737
-0.0375019833445549
0.042340874671936035
-0.07492245733737946
0.001939456444233656
0.02537161484360695
0.08783417195081711
-0.03141219913959503
0.08244217187166214
0.017248764634132385
0.04318540543317795
0.0273459292948246
0.06016867980360985
0.024553561583161354
0.09632149338722229
0.08921923488378525
0.09091762453317642
-0.07131295651197433
-0.09669947624206543
-0.01547163724899292
-0.0052705188281834126
0.011698214337229729
0.020576808601617813
0.028679104521870613
-0.048504140228033066
0.011212145909667015
-0.026154393330216408
-0.02108144201338291
0.011613798327744007
-0.019740115851163864
-0.07774535566568375
0.038345880806446075
0.07438185065984726
0.024251887574791908
0.033665016293525696
0.011492352001369
-0.020482869818806648
-0.03097507916390896
0.03478289395570755
0.029441652819514275
0.03469482436776161
0.01847073622047901
-0.05198562890291214
-0.010072686709463596
0.025658391416072845
-0.00897365715354681
-0.020868079736828804
-0.06357155740261078
-0.0295637808740139
0.0698728859424591
0.006527188699692488
0.007580883335322142
0.04483887925744057
0.0365898422896862
0.013802559114992619
-0.014237256720662117
0.009331130422651768
-0.035748496651649475
0.05286462604999542
-0.035564277321100235
-0.08824453502893448
-0.07936934381723404
-0.07309749722480774
0.013383524492383003
0.06433404982089996
-0.04524606093764305
-0.022466344758868217
0.016789013519883156
0.000914817035663873
-0.07344107329845428
0.01570739783346653
0.13063745200634003
-0.0026729374658316374
0.09226422756910324
-0.050097495317459106
0.09451233595609665
-0.019357459619641304
0.12488235533237457
0.06486829370260239
-0.06013496220111847
-0.06630603224039078
0.06572417914867401
0.02067706733942032
-0.010902364738285542
0.02551320008933544
-0.07588330656290054
0.009031283669173717
-0.04995067045092583
-0.021039599552750587
-0.07834270596504211
-0.017365504056215286
-0.09487695246934891
-0.06539569795131683
0.06330585479736328
-0.09302438050508499
0.05226192995905876
-0.058986976742744446
0.043996650725603104
0.04149279743432999
0.05457310006022453
0.060008976608514786
0.09120877832174301
0.08300142735242844
0.05067978799343109
-0.050756972283124924
0.09975608438253403
-0.060697998851537704
0.03413717821240425
-0.10130759328603745
-0.03270631283521652
0.055089909583330154
-0.06936174631118774
-0.03175913542509079
-0.07880672067403793
-0.08624326437711716
0.04013507813215256
0.07381375879049301
-0.06401939690113068
0.03168037533760071
0.05624764785170555
0.04349954053759575
-0.03881727531552315
-0.015269855968654156
-0.0003491767274681479
0.09238526970148087
0.08652626723051071
0.012347318232059479
0.06975392252206802
0.08649725466966629
0.0608106404542923
0.06582324951887131
0.039401594549417496
-0.09097141027450562
-0.057863641530275345
-0.05418258532881737
-0.09188786894083023
-0.09647263586521149
-0.06042319908738136
-0.061794426292181015
-0.01782316528260708
0.0734063982963562
-0.07418718189001083
-0.03188357874751091
0.026420248672366142
0.037045903503894806
-0.01758529059588909
0.017008796334266663
0.013756725937128067
-0.09313046932220459
-0.012206337414681911
-0.060231417417526245
0.04890817403793335
0.14985650777816772
0.1290992796421051
0.06075095757842064
0.05737806856632233
0.00971138197928667
0.10124469548463821
0.13222160935401917
-0.029231086373329163
0.016437623649835587
0.034498557448387146
-0.01301792822778225
0.02913871593773365
-0.019167039543390274
0.07296349853277206
-0.02104211039841175
0.006115202326327562
-0.02307855151593685
-0.08711612969636917
-0.056412823498249054
-0.02186129242181778
0.05849335342645645
0.004308728966861963
-0.0640721544623375
0.011812018230557442
0.0700603574514389
-0.033544108271598816
0.1061054989695549
0.027888033539056778
0.03146898001432419
0.009382731281220913
0.03874028101563454
0.05880872160196304
-0.016908861696720123
0.02067367546260357
0.10353031009435654
0.0716659277677536
0.016982372850179672
0.05759721249341965
-0.06440139561891556
0.05087834596633911
0.041651275008916855
-0.040478505194187164
-0.07910699397325516
-0.06457765400409698
-0.08297937363386154
-0.06535395979881287
0.012190720066428185
0.07362262159585953
-0.07659777253866196
0.007445194758474827
-0.038764242082834244
-0.010172844864428043
-0.03410519286990166
0.04527446627616882
-0.013322042301297188
0.027653567492961884
0.08095593005418777
0.11934486776590347
0.11314507573843002
-0.02860199846327305
-0.024971729144454002
0.06858871877193451
0.03244911506772041
0.0626516193151474
-0.03791661560535431
-0.008206728845834732
-0.04467407986521721
0.002878167200833559
-0.03198469430208206
0.10235542804002762
-0.02688823826611042
-0.08574120700359344
-0.03365108743309975
-0.0648813471198082
-0.04233861714601517
0.052938155829906464
-0.05839742720127106
0.039966076612472534
-0.013641574420034885
0.04495054855942726
-0.05137750133872032
0.0825299620628357
0.05590607225894928
0.01970396563410759
0.11489301919937134
-0.030643874779343605
0.052400171756744385
-0.06972335278987885
0.04366350173950195
0.0010924531379714608
-0.013032326474785805
0.007615596055984497
0.03928592428565025
0.01786026731133461
-0.01612178608775139
0.04771413654088974
0.025389257818460464
0.08778607845306396
0.04916561022400856
0.0005471321055665612
0.08602096885442734
0.03798982873558998
0.08313324302434921
-0.0821230337023735
-0.007881353609263897
0.012254352681338787
-0.08544602990150452
-0.07264705747365952
0.015306691639125347
0.0997752696275711
0.056246235966682434
-0.04564450681209564
0.08314427733421326
-0.02337038703262806
-0.015096672810614109
0.016512399539351463
-0.015340509824454784
0.06690866500139236
-0.00972173921763897
0.05295833200216293
0.08006122708320618
0.035157378762960434
-0.0039718602783977985
0.07717429846525192
0.1378750056028366
-0.02169359102845192
-0.03541412949562073
0.07205590605735779
-0.050071123987436295
0.049498092383146286
-0.007357846014201641
0.013631136156618595
-0.038917653262615204
0.04995351657271385
-0.022940577939152718
-0.08117397129535675
0.10563378036022186
0.019399922341108322
0.06698716431856155
-0.021879905834794044
0.01570596545934677
0.027742866426706314
0.03992365300655365
-0.02791643515229225
-0.008627175353467464
-0.004726655315607786
-0.05580725893378258
0.08481470495462418
0.014680400490760803
-0.053277622908353806
-0.003221288090571761
-0.039957914501428604
0.0010591581230983138
-0.021068263798952103
-0.07932208478450775
0.07351107150316238
-0.022294800728559494
0.032016560435295105
-0.012376661412417889
0.0024383359123021364
-0.023784972727298737
0.006748391315340996
0.05958133935928345
0.01723206602036953
0.025923417881131172
0.037666331976652145
-0.056422535330057144
0.08363323658704758
-0.008246975019574165
0.07099161297082901
0.11721952259540558
0.032066453248262405
0.07402870804071426
-0.019640125334262848
0.05438505858182907
0.09235905110836029
-0.025492409244179726
0.01695776917040348
-0.0032918467186391354
0.06539899110794067
0.05172159895300865
0.008277695626020432
-0.035913459956645966
-0.025336632505059242
0.020635781809687614
-0.04341951385140419
-0.02568747103214264
0.0026190278586000204
0.04414116591215134
-0.01870419830083847
-0.0531468503177166
-0.1041526347398758
-0.02616809494793415
-0.08957239985466003
0.016675949096679688
0.026039259508252144
0.047630615532398224
0.05666947737336159
0.11083109676837921
0.09921954572200775
0.05581678822636604
0.038162775337696075
0.100814089179039
0.017449215054512024
-0.03694828972220421
0.08182286471128464
0.005133753642439842
-0.05346173420548439
0.07293336093425751
0.052277326583862305
-0.02395993284881115
-0.014447101391851902
0.04584113880991936
-0.005984402261674404
-0.03087945468723774
0.013115131296217442
0.08661028742790222
0.04951618239283562
-0.053377415984869
-0.12327494472265244
-0.09048885852098465
-0.10804327577352524
-0.08668535202741623
0.056624870747327805
-0.07533910870552063
0.07355950772762299
0.05463283881545067
0.03557010740041733
0.04941616579890251
-0.028060443699359894
0.039366722106933594
0.07201220840215683
-0.036570023745298386
-0.01588236726820469
0.04515042528510094
0.053683385252952576
0.08492059260606766
-0.05496314540505409
0.07486379891633987
-0.03526707738637924
-0.0639665424823761
-0.006154513917863369
-0.06982153654098511
0.027165230363607407
-0.08705271780490875
0.041083838790655136
-0.07582105696201324
0.03727913275361061
-0.08651597052812576
0.02776283398270607
0.035700470209121704
-0.04205551743507385
0.06534773111343384
-0.0026662349700927734
0.06728805601596832
-0.06518939882516861
-0.021724103018641472
0.0174777340143919
-0.008872779086232185
0.00872866716235876
0.05165861174464226
0.08539068698883057
-0.02157849818468094
-0.05233723670244217
-0.059898655861616135
-0.012789720669388771
-0.048038873821496964
-0.05525244027376175
0.0850340873003006
-0.009449328295886517
-0.03308632969856262
0.04966035112738609
-0.034491829574108124
0.01991727203130722
-0.052846938371658325
0.0337715782225132
0.0043012965470552444
0.06959190964698792
-0.0002604000037536025
-0.08718039840459824
0.03787558153271675
-0.08820684254169464
-0.003133659716695547
0.01693623699247837
0.038853924721479416
-0.06079024076461792
-0.03827301785349846
0.008565512485802174
-0.05854136496782303
-0.06120498105883598
0.0016292278887704015
0.0013462509959936142
0.04945913329720497
-0.053129009902477264
0.06846091151237488
-0.049826811999082565
0.0546245276927948
-0.07251732051372528
0.06255722045898438
-0.06741412729024887
0.04911129176616669
-0.029651690274477005
-0.08681683242321014
-0.08014985918998718
-0.07615631818771362
0.013937228359282017
0.019367439672350883
0.054481446743011475
0.06594488024711609
-0.04238605871796608
-0.006043977104127407
-0.05016148462891579
-0.015416476875543594
-0.06796638667583466
-0.06427324563264847
-0.06009967252612114
0.023306870833039284
-0.05108074098825455
-0.024692362174391747
0.06663711369037628
0.0388280414044857
0.0409240797162056
0.00047503499081358314
0.03018398955464363
-0.06557849049568176
-0.07239319384098053
-0.08581456542015076
-0.0662604421377182
-0.04018367826938629
-0.07864908128976822
0.030266739428043365
0.027690082788467407
0.05601786822080612
-0.06190839037299156
-0.06655046343803406
-0.07235554605722427
-0.021952923387289047
0.04151631146669388
-0.05721649155020714
-0.02883872762322426
-0.04036838561296463
0.06112707033753395
-0.015310661867260933
-0.06326615065336227
0.07947755604982376
-0.08490448445081711
0.05547672510147095
0.07902927696704865
-0.07217986136674881
-0.08684030920267105
-0.007417046930640936
0.0813809484243393
-0.0730011910200119
0.07725957036018372
0.07198333740234375
0.05738503113389015
-0.07431290298700333
0.04012534022331238
0.020515063777565956
-0.08613501489162445
-0.015422968193888664
0.05140327662229538
-0.05985451489686966
0.05923016369342804
0.06777576357126236
0.0700465589761734
-0.029555857181549072
-0.01689797453582287
-0.05449391156435013
-0.009226534515619278
-0.048831988126039505
0.019955769181251526
-0.07897982746362686
-0.015386553481221199
-0.039896003901958466
0.05738014727830887
0.07247749716043472
-0.08450595289468765
0.02019224688410759
-0.042243167757987976
-0.04481964558362961
0.0027162227779626846
-0.014808001928031445
-0.002158874412998557
0.048853740096092224
-0.007266564294695854
-0.056035224348306656
-0.04562044516205788
-0.0029056656640022993
-0.08646298199892044
0.060366638004779816
0.017413297668099403
0.02516789175570011
0.06608732044696808
0.04893503710627556
0.055556878447532654
0.01476246491074562
-0.038746535778045654
-0.028937626630067825
-0.055478643625974655
0.08587897568941116
-0.05713075026869774
-0.04007650539278984
-0.05534987896680832
0.03445298597216606
-0.05974559485912323
-0.0763581320643425
0.074958935379982
-0.07613196223974228
-0.06578885018825531
-0.049037061631679535
-0.024998139590024948
-0.07372637838125229
0.024715805426239967
-0.037233639508485794
0.019637398421764374
0.07921256870031357
-0.001238456112332642
0.025824518874287605
-0.036192554980516434
-0.057486504316329956
-0.05831117182970047
0.00482475059106946
0.018726572394371033
-0.04711513966321945
0.04332413896918297
0.02370164357125759
-0.03734184056520462
0.06570658087730408
0.04967373237013817
-0.03267223760485649
0.0014071435434743762
-0.02286202274262905
-0.065579354763031
-0.06822282075881958
0.06818708032369614
-0.08714609593153
0.042287677526474
0.08155758678913116
-0.058358509093523026
-0.017197726294398308
-0.0025376349221915007
-0.041374772787094116
-0.040346696972846985
-0.0539860874414444
0.011564996093511581
-0.003590378677472472
0.03540627285838127
-0.09479781240224838
-0.08872850239276886
-0.11544717848300934
0.021195733919739723
-0.045578714460134506
0.049310553818941116
-0.025570642203092575
0.10368182510137558
0.11084038019180298
0.07327531278133392
0.013528193347156048
0.08221554756164551
0.027428168803453445
0.04873859882354736
0.020186591893434525
-0.07995180040597916
0.08130279183387756
0.058984119445085526
0.008109904825687408
-0.0315333716571331
0.08317708224058151
-0.04277430474758148
0.06996914744377136
0.08382530510425568
0.04243668168783188
0.008507850579917431
-0.04486638680100441
-0.05562537536025047
0.05778716132044792
0.0026311844121664762
0.0034480050671845675
0.04938225820660591
-7.444452785421163e-05
-0.1231999471783638
0.047613080590963364
0.03884764760732651
0.15163885056972504
0.020613668486475945
0.039178282022476196
0.0006483005126938224
0.08372023701667786
0.06996522843837738
-0.078033946454525
0.057203296571969986
-0.02232610248029232
-0.0530209057033062
-0.0185028575360775
-0.08695536106824875
-0.029408620670437813
-0.010504372417926788
0.05155986547470093
-0.006829401943832636
0.02547483518719673
0.00024216578458435833
-0.0923815667629242
0.01820163056254387
0.0012916908599436283
-0.08934404700994492
-0.08621812611818314
-0.015068178065121174
0.03568562865257263
-0.032492708414793015
-0.0889337882399559
0.015864195302128792
0.07654351741075516
0.1815243363380432
0.11238790303468704
0.15031328797340393
0.09959268569946289
-0.010063341818749905
-0.02088054083287716
0.0430857315659523
0.013250666670501232
-0.009719117544591427
0.06076731160283089
0.041223302483558655
0.021920813247561455
-0.010183069854974747
0.013739846646785736
-0.056395772844552994
0.03245779126882553
-0.06798989325761795
-0.016853179782629013
-0.05266797915101051
0.02168401889503002
-0.01077913399785757
0.042673997581005096
0.059729672968387604
-0.06796076893806458
-0.052078623324632645
-0.08555952459573746
0.021947884932160378
0.10361046344041824
0.1310618370771408
0.1477920413017273
0.009986850433051586
0.12595009803771973
0.012133413925766945
-0.043386418372392654
-0.08561495691537857
-0.013482918031513691
0.06391999870538712
0.02788243629038334
0.031160395592451096
0.02796732820570469
-0.051409389823675156
-0.005436291452497244
0.05033139884471893
0.041178539395332336
-0.059985119849443436
-0.06283625215291977
-0.014725131914019585
-0.0375496931374073
0.08789658546447754
0.06007097661495209
-0.11405690759420395
-0.16426946222782135
-0.11977947503328323
-0.10107332468032837
0.1143859401345253
0.053517185151576996
0.10219915956258774
0.12675823271274567
0.10698562115430832
0.056440237909555435
-0.029105819761753082
0.060884732753038406
0.0034343537408858538
-0.033055949956178665
0.037519119679927826
0.03243905305862427
-0.07009711861610413
-0.048972293734550476
0.01270324271172285
0.0800892561674118
0.05351895093917847
0.013732567429542542
-0.0615365169942379
0.043119773268699646
0.07293502241373062
0.0006635502795688808
0.053433045744895935
-0.0041786194778978825
-0.10126609355211258
-0.06686791032552719
-0.22356966137886047
0.012338842265307903
0.04185669869184494
0.08847679197788239
0.13143497705459595
0.09599762409925461
0.05404623970389366
0.07779046148061752
-0.06369004398584366
-0.04948508366942406
-0.08647073805332184
0.06261143833398819
0.03244484215974808
-0.02486453950405121
-0.08243309706449509
-0.05962536856532097
0.01824255660176277
0.052065491676330566
0.03570917621254921
0.10161812603473663
-0.013896270655095577
0.008092024363577366
0.01671600341796875
0.004757450893521309
-0.021895689889788628
0.05911038815975189
-0.17469075322151184
-0.21706104278564453
-0.11847744137048721
0.099530890583992
0.04832146316766739
0.14840523898601532
0.025152413174510002
0.14818443357944489
-0.038543589413166046
0.08495445549488068
-0.033971261233091354
-0.06986253708600998
-0.03293842449784279
0.00310528720729053
0.03279482573270798
0.057852692902088165
0.009180647321045399
-0.048940639942884445
0.04100676625967026
-0.07186766713857651
-0.04207645356655121
0.007431403733789921
-0.004649987909942865
0.11748745292425156
-0.004084148444235325
0.14928041398525238
0.0455513559281826
-0.11840731650590897
-0.07419104874134064
-0.21353040635585785
-0.006469105836004019
0.016860531643033028
0.007594243157655001
0.032060448080301285
0.07369574159383774
0.10368231683969498
0.053828008472919464
-0.01681261509656906
-0.09909996390342712
-0.0025103006046265364
-0.0903608500957489
-0.022885214537382126
0.08683966100215912
-0.07515151053667068
0.05910370498895645
-0.07118202745914459
-0.06675657629966736
-0.055232733488082886
0.013343210332095623
0.04031025990843773
0.059940773993730545
0.019763553515076637
0.05764257162809372
0.01381796132773161
0.002935767639428377
-0.08019711077213287
-0.13009998202323914
-0.05674826726317406
-0.060128942131996155
-0.03624670207500458
0.05673130601644516
-0.02045220322906971
0.03731049224734306
0.024109266698360443
0.018267402425408363
-0.05663163959980011
-0.08444707095623016
-0.004061941988766193
0.07494285702705383
0.059781514108181
-0.0742112547159195
0.08194484561681747
0.0481264591217041
0.06530744582414627
-0.036810170859098434
0.05115988105535507
0.09762458503246307
0.08103068172931671
0.004186667501926422
0.10404570400714874
-0.03026384860277176
-0.07941829413175583
-0.07790318131446838
-0.07459660619497299
-0.11161050945520401
0.043829407542943954
0.010614425875246525
0.021012378856539726
0.05186352878808975
-0.058165136724710464
0.019772855564951897
0.025274265557527542
0.04494694620370865
0.06058009713888168
-0.029447652399539948
-0.03962913900613785
0.013964619487524033
-0.0317145437002182
0.0176052525639534
-0.06616301834583282
0.029457442462444305
-0.079039566218853
-0.03950933367013931
0.08187463879585266
0.031009037047624588
-0.03305209428071976
0.048296499997377396
-0.030433764681220055
0.0786234438419342
-0.13485275208950043
-0.05323629826307297
0.02760346233844757
0.015974510461091995
-0.061322156339883804
-0.007558060809969902
0.0481254942715168
-0.054898910224437714
-0.06701094657182693
0.09635987877845764
0.1123887300491333
0.0313340462744236
-0.0312130618840456
0.051915694028139114
-0.024978620931506157
0.00766400620341301
-0.08339966088533401
-0.0394744835793972
0.033167026937007904
0.07555634528398514
-0.038392748683691025
-0.06133482605218887
0.08947330713272095
-0.05081856623291969
0.015659933909773827
0.09671825915575027
-0.022954151034355164
0.02361355721950531
-0.003883445868268609
-0.04184893146157265
-0.05734843388199806
-0.03362948074936867
0.03873486816883087
-0.04921983554959297
-0.00979221798479557
-0.07128909230232239
0.033561915159225464
-0.040539052337408066
0.011803284287452698
0.03559696674346924
-0.04113259166479111
0.010563553310930729
-0.07204924523830414
0.025595014914870262
0.05767764151096344
0.03359537571668625
-0.03678400442004204
-0.07150236517190933
-0.08792135119438171
-0.028936978429555893
0.08580328524112701
-0.029114941135048866
-0.015487808734178543
0.055348705500364304
-0.0453600250184536
-0.05623181164264679
-0.1163443997502327
-0.08076262474060059
-0.04762035608291626
0.05354504659771919
-0.06768572330474854
-0.004366068169474602
-0.17327755689620972
-0.11166662722826004
-0.027589015662670135
-0.034628283232450485
-0.02211996167898178
0.06418251991271973
-0.00836215727031231
0.044634874910116196
-0.07877969741821289
-0.04283243045210838
-0.07765427231788635
0.05777282267808914
0.0093477638438344
-0.016528088599443436
0.02435269020497799
-0.022954940795898438
0.0665665715932846
-0.03940039128065109
0.03000292181968689
0.07513141632080078
-0.005319120362401009
-0.060878872871398926
0.044047534465789795
0.030839703977108
0.11654075980186462
0.04463996738195419
-0.007772624026983976
-0.04596329480409622
-0.10726828128099442
-0.033844124525785446
-0.01888606883585453
0.003539065830409527
0.025532294064760208
0.06356362253427505
0.056054018437862396
-0.09652009606361389
0.011407473124563694
0.015265335328876972
0.0810898169875145
0.02139943465590477
-0.01222184207290411
0.04930723458528519
0.03566299006342888
-0.05788091570138931
0.06367138773202896
-0.014814743772149086
-0.09511524438858032
-0.01492205448448658
0.03723674640059471
0.014478812925517559
-0.061079904437065125
0.08800617605447769
0.10532157123088837
-0.040502000600099564
-0.056379564106464386
-0.15795911848545074
-0.12783154845237732
0.0601658821105957
0.0031719582621008158
0.10571346431970596
0.07753196358680725
0.051795948296785355
-0.00907712522894144
0.03340030089020729
-0.038831885904073715
-0.04904869571328163
-0.06321904063224792
-0.0854305624961853
-0.03031041845679283
0.07296046614646912
0.04810364171862602
0.04154915362596512
0.08976761996746063
0.05442240834236145
0.007678224705159664
0.08698855340480804
0.07598566263914108
0.10779742896556854
0.017549196258187294
0.19526307284832
0.03178512677550316
0.020666752010583878
-0.1889701932668686
-0.11635958403348923
-0.021357525140047073
0.0004332308017183095
0.14952348172664642
-0.023622121661901474
0.011597533710300922
0.07267262041568756
0.02759157307446003
0.04452160373330116
-0.06351669132709503
-0.0005140602006576955
0.05972132086753845
-0.04515991732478142
-0.05541094392538071
-0.012968597002327442
-0.053265735507011414
0.04511932656168938
-0.044922612607479095
-0.07559438049793243
0.049770958721637726
-0.00413366686552763
0.0664137750864029
0.07859908789396286
0.15979552268981934
0.17226062715053558
0.06919967383146286
-0.1322835385799408
-0.14647582173347473
-0.09478490054607391
-0.05274539068341255
-0.014813387766480446
0.010376210324466228
0.1076948270201683
0.06385502964258194
-0.03777904063463211
-0.07387014478445053
-0.05132652446627617
0.0059977625496685505
-0.06773609668016434
-0.009169571101665497
-0.07128945738077164
0.03498451039195061
0.01177685521543026
0.08563514053821564
-0.0380590446293354
0.03233771026134491
-0.03853559494018555
0.05452147498726845
0.07833770662546158
0.11725438386201859
-0.005436839535832405
0.0905204713344574
0.07503578811883926
-0.10546977818012238
-0.18867938220500946
-0.05992859974503517
-0.029099443927407265
0.009860496036708355
0.06607884168624878
0.0717754065990448
0.06858091056346893
0.003493543481454253
-0.04122040793299675
-0.06739255040884018
0.027866629883646965
-0.02344677224755287
0.02356402389705181
-0.005823684390634298
0.05040835216641426
0.06696121394634247
-0.004772723652422428
0.038536153733730316
0.028482109308242798
-0.0767904743552208
0.07623254507780075
0.057784419506788254
0.079386405646801
0.08621405065059662
0.0858771800994873
0.0525602251291275
-0.033547766506671906
0.0015918688150122762
-0.0679757297039032
-0.09874989837408066
0.058054208755493164
-0.05085955560207367
0.09259124845266342
0.03551686182618141
0.05711663141846657
0.002904527820646763
0.08541937917470932
-0.013344591483473778
-0.050416186451911926
-0.02231076918542385
-0.07455506920814514
0.052237384021282196
0.07049203664064407
-0.04221482202410698
0.033411622047424316
-0.07643664628267288
-0.0711456686258316
-0.05725793540477753
0.023009397089481354
0.03211195021867752
0.11604716628789902
0.10384436696767807
0.1037496030330658
-0.031015582382678986
0.029077094048261642
-0.067808598279953
-0.15234972536563873
-0.03656770661473274
-0.009577201679348946
0.04461972042918205
0.09938828647136688
0.09764543920755386
-0.004078879952430725
0.05041675269603729
0.07180508226156235
0.008880010806024075
-0.031346678733825684
-0.05767258256673813
0.06328152865171432
-0.05482720956206322
-0.05612430348992348
0.08024553209543228
0.008804035373032093
-0.08665966242551804
-0.0810462236404419
0.012341488152742386
0.07920380681753159
0.1126522347331047
0.08967112749814987
0.09002834558486938
-0.034756239503622055
-0.08499071002006531
-0.010938837192952633
-0.17301028966903687
-0.14081253111362457
-0.06761246919631958
0.03546472266316414
-0.08267165720462799
-0.03432805836200714
0.04720126837491989
0.022540418431162834
-0.026955584064126015
0.06579902023077011
0.045438800007104874
0.021718334406614304
-0.07380939275026321
0.008969089016318321
0.05004941299557686
-0.00678603071719408
-0.05790749564766884
0.02267511747777462
0.07370224595069885
-0.009074384346604347
0.07196253538131714
0.014419584535062313
0.11073072999715805
0.09653332829475403
-0.03540836647152901
0.06256940215826035
0.03782336413860321
-0.08838319778442383
-0.03988258168101311
-0.09049031883478165
0.01178662572056055
0.02280960977077484
-0.007815967313945293
0.05300164595246315
-0.011086340993642807
-0.05992135405540466
0.05604991689324379
0.0927671417593956
-0.024932345375418663
0.02001335471868515
-0.07884657382965088
-0.08358220010995865
-0.08646509796380997
-0.012747865170240402
0.07164512574672699
-0.0033232425339519978
-0.03342415764927864
-0.0729634165763855
0.08536182343959808
-0.07842916250228882
-0.07936540991067886
-0.010774577036499977
-0.01720256917178631
0.041969314217567444
-0.04786258190870285
0.009056597016751766
-0.009499752894043922
-0.007730609271675348
-0.06310484558343887
0.02186911180615425
0.06768421828746796
0.07520917803049088
-0.04380657151341438
-0.05607252195477486
-0.07664557546377182
0.06734304875135422
-0.001152188633568585
0.051694951951503754
0.0564405620098114
0.01585470139980316
-0.047001246362924576
-0.06691042333841324
0.056508492678403854
0.028795769438147545
-0.006847163662314415
0.004057471174746752
0.054253701120615005
-0.07022294402122498
0.07123997062444687
-0.0044251312501728535
0.08696496486663818
0.008601545356214046
0.00732918456196785
-0.07882492989301682
0.020088011398911476
-0.0761052742600441
0.08287142962217331
-0.02883956953883171
-0.008504580706357956
0.0605001337826252
0.06220151484012604
-0.0448145754635334
-0.024412976577878
0.06781791150569916
-0.034642189741134644
-0.01886305771768093
0.05651237443089485
0.046449363231658936
-0.0383036769926548
-0.01649203896522522
0.03161350637674332
-0.042472898960113525
-0.08390265703201294
0.06293268501758575
0.023327605798840523
0.05687928572297096
-0.05188407003879547
0.030640460550785065
-0.005810337606817484
0.02438824065029621
0.046061404049396515
0.06116492301225662
-0.08054757863283157
-0.056901417672634125
0.02295929379761219
0.0553860180079937
0.07515795528888702
0.033490147441625595
0.035607725381851196
-0.03613625839352608
0.028542499989271164
-0.045047566294670105
0.039406221359968185
0.05900606885552406
0.07309968024492264
0.07910631597042084
0.025514408946037292
0.06812890619039536
0.04517877846956253
-0.06070896238088608
0.025453506037592888
0.0030918624252080917
-0.06891337037086487
-0.06265944987535477
-0.03378727287054062
0.043196797370910645
-0.04559287801384926
0.06052907556295395
-0.015485589392483234
0.036374446004629135
-0.07488377392292023
0.08786170929670334
-0.023734642192721367
0.0182650163769722
-0.0358138270676136
-0.0840965062379837
0.00524821225553751
0.04150772839784622
0.02358165569603443
0.02293863147497177
-0.0745989978313446
0.021031098440289497
-0.05306563526391983
-0.048084281384944916
-0.04832116514444351
0.039853453636169434
0.03201349452137947
0.07731564342975616
0.033266421407461166
-0.0782916247844696
-0.029339250177145004
-0.0290165226906538
-0.06569278240203857
0.05002109333872795
-0.07255067676305771
-0.011931107379496098
0.040411803871393204
0.08130648732185364
-0.04751400649547577
-0.028179792687296867
-0.06610718369483948
-0.06356505304574966
0.03191239386796951
0.020995724946260452
0.034893542528152466
0.011854046955704689
-0.024744369089603424
-0.05030975863337517
-0.003470746101811528
-0.08452166616916656
0.0484716072678566
-0.038061123341321945
0.0821753591299057
0.07774144411087036
-0.012752881273627281
-0.08400167524814606
0.037730950862169266
-0.004205783829092979
0.024780957028269768
0.022736255079507828
-0.06255877017974854
0.056707508862018585
-0.03623354062438011
0.07715755701065063
0.08491770178079605
0.04364499822258949
0.021300138905644417
0.08797068148851395
-0.03876357898116112
0.014400007203221321
-0.0035751373507082462
-0.04798845574259758
-0.0045547629706561565
-0.049241676926612854
0.053188249468803406
-0.08561737835407257
-0.027464378625154495
0.06939806044101715
0.0021257519256323576
0.08571504056453705
0.03691141679883003
-0.06717730313539505
0.02622683160007
-0.055829547345638275
-0.04121419042348862
-0.021863065659999847
0.011919170618057251
-0.059397146105766296
-0.0625772699713707
-0.050646815448999405
-0.06820978224277496
0.06046106666326523
0.05387049540877342
-0.009551966562867165
0.011796229518949986
0.021262019872665405
0.022598709911108017
-0.03743291646242142
0.02574276179075241
-0.0194829311221838
-0.019750695675611496
-0.0768357440829277
0.031068306416273117
-0.0013087611878290772
-0.02871551550924778
0.07258274406194687
0.06771054118871689
-0.02284088358283043
0.03461118042469025
-0.0488874688744545
-0.06690128147602081
-0.044461049139499664
0.062092505395412445
0.0626215934753418
0.02238234505057335
-0.04407452419400215
0.06996484100818634
0.0731852576136589
0.053028494119644165
0.04420386254787445
-0.0770266056060791
-0.006067102774977684
-0.008958526886999607
-0.11881771683692932
-0.13132022321224213
-0.04806988686323166
-0.18861673772335052
-0.12414567917585373
-0.095181405544281
-0.1050976887345314
0.011955753900110722
-0.027089379727840424
-0.0430658794939518
-0.006445291452109814
-0.08025456964969635
-0.07684158533811569
0.07645748555660248
-0.0750979334115982
0.02243840880692005
-0.04235275089740753
-0.044063933193683624
0.036400314420461655
0.02355353906750679
0.03758776932954788
-0.052299514412879944
-0.07764717191457748
-0.0690397396683693
-0.022413156926631927
-0.07354815304279327
-0.10029153525829315
-0.04278966039419174
-0.12725508213043213
-0.12802360951900482
-0.02299370802938938
-0.13078990578651428
-0.06759121268987656
-0.13304997980594635
-0.10344862937927246
-0.035917729139328
0.017625777050852776
-0.1380457729101181
-0.10174252092838287
-0.016582585871219635
-0.0641290619969368
-0.008094819262623787
0.035659391433000565
-0.02623809687793255
0.034410614520311356
0.052467819303274155
-0.006283849477767944
0.040378957986831665
-0.09336080402135849
-0.030640847980976105
-0.11482888460159302
-0.05139915272593498
-0.07405328750610352
0.010547363199293613
-0.015119543299078941
0.004009375814348459
-0.03372390940785408
0.05952839180827141
-0.08746755868196487
-0.037030018866062164
-0.02412727288901806
-0.02478823997080326
-0.13066628575325012
-0.08603872358798981
-0.01934584602713585
-0.016556348651647568
-0.02247125841677189
-0.06747746467590332
-0.03755573928356171
0.026669736951589584
-0.07447241991758347
0.07649319618940353
0.08444027602672577
0.019614413380622864
-0.006906874943524599
-0.09492719918489456
-0.119501493871212
-0.03179680556058884
0.02440560795366764
-0.015995794907212257
-0.07200613617897034
0.029557909816503525
0.051580172032117844
0.06134383752942085
0.09761365503072739
0.034460052847862244
-0.019720595329999924
0.03234338387846947
-0.03433513641357422
-0.11671236157417297
-0.020189346745610237
-0.1439661830663681
-0.01607249118387699
-0.08900074660778046
0.0262807197868824
-0.09084929525852203
-0.05594741553068161
-0.06330358237028122
0.07107365876436234
-0.05976000800728798
0.03554454445838928
-0.0894642323255539
0.05568550154566765
0.012220032513141632
-0.023015255108475685
-0.07835434377193451
-0.05206335708498955
0.04544920101761818
0.09149787575006485
0.1196666806936264
0.035361118614673615
0.06503646075725555
0.013395463116466999
0.07955245673656464
0.09965759515762329
-0.003301534103229642
-0.05609270557761192
0.010837361216545105
-0.0783810093998909
-0.11441740393638611
-0.0610760822892189
-0.0784250944852829
-0.15295898914337158
-0.034769076853990555
0.030950132757425308
-0.03866133093833923
0.0005471998010762036
0.0396215096116066
-0.08521547168493271
-0.0834566280245781
0.03652970492839813
-0.09729540348052979
-0.03531426191329956
-0.00897871982306242
0.04407656937837601
-0.005710536148399115
0.01659066416323185
0.08264251053333282
-0.056888021528720856
0.02949039824306965
0.08499797433614731
0.028271757066249847
0.023798298090696335
0.030102377757430077
0.0548921637237072
-0.007058654446154833
0.016534222289919853
0.029431143775582314
-0.1510603278875351
-0.05044036731123924
-0.01249983161687851
0.023147981613874435
-0.0764671191573143
0.02969134785234928
0.043220773339271545
0.006468027364462614
-0.055123183876276016
-0.017277102917432785
0.011700712144374847
0.08077435940504074
0.07066009938716888
0.04595569893717766
0.05973898991942406
0.019005186855793
-0.06215846166014671
-0.12007217854261398
-0.011270812712609768
-0.02331816405057907
0.08956396579742432
0.05604778230190277
0.11219984292984009
0.13482719659805298
0.03254103288054466
0.09022673219442368
0.0909411832690239
0.01782301813364029
-0.10632708668708801
-0.08179489523172379
-0.020644566044211388
0.04985756427049637
0.04901758208870888
-0.029236702248454094
-0.06829273700714111
-0.03708098828792572
0.04218629002571106
-0.026500651612877846
-0.08084278553724289
0.09212367236614227
-0.01459518726915121
-0.034472450613975525
0.049138251692056656
0.04118145629763603
-0.019658386707305908
0.015534770675003529
-0.06106496602296829
0.021316342055797577
0.10435458272695541
0.11904557794332504
0.013425245881080627
0.061444804072380066
0.12898200750350952
0.061221953481435776
0.06010615825653076
-0.008500109426677227
-0.05393021181225777
-0.05978698283433914
0.0034370128996670246
0.007666271645575762
0.0019229475874453783
-0.023585548624396324
-0.0378510057926178
-0.08332403749227524
0.03566392883658409
0.02984347939491272
0.02403004840016365
-0.034852318465709686
-0.06457941234111786
-0.03701065480709076
-0.01638246327638626
-0.07733035087585449
-0.025051433593034744
-0.05817548558115959
-0.021586744114756584
0.13472509384155273
0.15661850571632385
0.14312194287776947
-0.020919397473335266
0.06641533225774765
0.006635730154812336
0.10715995728969574
0.028667137026786804
-0.027015188708901405
-0.001277141971513629
0.05933284014463425
0.026633774861693382
0.0741322860121727
0.05668714642524719
-0.06320599466562271
0.04388382285833359
-0.07564876973628998
0.050057291984558105
0.05738098546862602
0.02809448167681694
-0.0397050678730011
-0.01836637407541275
0.0899464562535286
0.030167117714881897
0.018094677478075027
-0.051753778010606766
0.06575054675340652
0.12670303881168365
0.10121995210647583
0.05365000665187836
0.039867863059043884
0.07017539441585541
-0.00796126015484333
0.08683694899082184
-0.009436170570552349
-0.10894245654344559
-0.02863558940589428
0.023282447829842567
0.09523523598909378
0.05286475643515587
0.051131054759025574
0.026317065581679344
-0.04145780950784683
-0.08129702508449554
0.04166640341281891
0.014775739051401615
0.06407502293586731
0.07135839760303497
0.0018233712762594223
-0.020717160776257515
0.03657948225736618
-0.02521473728120327
-0.10180264711380005
-0.09545303136110306
0.07503833621740341
0.1354556381702423
0.02331189624965191
0.008273690938949585
-0.05271556228399277
0.0033040540292859077
-0.008671918883919716
-0.02812878228724003
-0.030946576967835426
0.040691208094358444
0.020342130213975906
-0.09583836048841476
0.07298901677131653
0.10614694654941559
0.11672040820121765
0.10669731348752975
0.05803235247731209
-0.06041434034705162
-0.038715846836566925
-0.06553244590759277
-0.057220157235860825
0.007451576646417379
0.01732606254518032
-0.02846207097172737
-0.06563721597194672
-0.0770789384841919
-0.11340571939945221
-0.05738533288240433
0.013718144968152046
0.14106188714504242
0.06354692578315735
-0.016769379377365112
0.06790995597839355
0.09039486199617386
0.12383849173784256
0.10327240824699402
0.04032258689403534
-0.03256823495030403
0.013414820656180382
-0.021167755126953125
0.06351155787706375
0.014387096278369427
0.06401650607585907
-0.015614569187164307
0.0020463361870497465
0.05768705531954765
-0.05084807798266411
0.011177247390151024
0.03348414599895477
0.06499681621789932
-0.03430989012122154
-0.01967502199113369
0.05703292414546013
-0.0797005444765091
-0.06590515375137329
-0.0131319435313344
0.15149158239364624
0.007261921651661396
0.008944077417254448
-0.017300691455602646
0.049575019627809525
0.08509249240159988
0.06778617203235626
0.034108635038137436
0.011922786012291908
0.034316692501306534
0.07328683137893677
0.09123529493808746
0.06434665620326996
0.0017905322602018714
0.07068833708763123
-0.03997745364904404
0.01606540009379387
-0.02481495402753353
0.012434096075594425
0.021641472354531288
0.06158240884542465
0.09266893565654755
0.07519406825304031
-0.05720236524939537
0.03193474933505058
-0.04248880594968796
-0.0003454401739872992
-0.00542502710595727
0.0387447290122509
0.06904546171426773
0.09185009449720383
-0.04719383269548416
0.025912955403327942
0.10916023701429367
-0.0950443223118782
0.08596832305192947
-0.00281078414991498
0.08134644478559494
0.024311181157827377
0.11607437580823898
0.08727473765611649
0.03509938716888428
-0.023548010736703873
-0.05828927829861641
-0.054020024836063385
-0.055995646864175797
0.05503278225660324
-0.044201213866472244
0.044336602091789246
0.02954350970685482
-0.02294069342315197
-0.07403381168842316
-0.13068720698356628
-0.06920788437128067
-0.0392196848988533
-0.07357953488826752
-0.05205118656158447
0.025418246164917946
-0.05112434923648834
0.10330203920602798
0.09326450526714325
0.021767253056168556
0.05552291125059128
-0.04986349865794182
-4.062298467033543e-05
-0.06790310144424438
-0.06072429567575455
0.048832111060619354
0.10187937319278717
0.008480578660964966
0.1043570414185524
-0.0652303621172905
-0.006696376949548721
-0.07589563727378845
0.07138260453939438
0.08630143851041794
0.027522986754775047
0.03965546563267708
-0.002320087980479002
0.04808880761265755
-0.10706611722707748
-0.13394060730934143
0.0002041467814706266
-0.07424665987491608
-0.09074889123439789
0.048634253442287445
-0.04346567392349243
0.009740369394421577
-0.03533417731523514
-0.018162833526730537
-0.1410834640264511
-0.06037823110818863
0.015597504563629627
0.049594536423683167
-0.018980680033564568
0.06284331530332565
-0.031962405890226364
-0.009762588888406754
0.09934216737747192
-0.04034383222460747
-0.032786257565021515
0.0732039213180542
0.07075127214193344
-0.05143340677022934
-0.03682568296790123
-0.08189213275909424
0.0031630967278033495
0.042154572904109955
-0.1118822693824768
-0.11743216961622238
-0.12059850990772247
-0.07135506719350815
0.022130822762846947
-0.10604212433099747
0.00646178238093853
-0.007758835330605507
-0.12580646574497223
-0.0558367520570755
-0.08580286055803299
-0.18070527911186218
-0.02515132538974285
-0.032211996614933014
-0.0012583077186718583
-0.02859213389456272
-0.04102538898587227
-0.06268244981765747
0.06863320618867874
0.07090675085783005
-0.05951787531375885
0.03245353698730469
0.06679971516132355
-0.08086225390434265
-0.0766286849975586
-0.07512733340263367
-0.03782295808196068
-0.015692047774791718
0.052460409700870514
-0.04985509440302849
-0.011718681082129478
0.012788147665560246
-0.08096252381801605
-0.026972120627760887
-0.10464925318956375
-0.05259791016578674
-0.1574486345052719
-0.10784700512886047
-0.1392412632703781
-0.12613911926746368
-0.06921327859163284
-0.0926169604063034
-0.0350707545876503
-0.04430702328681946
-0.07620523869991302
-0.07469800859689713
-0.04595034942030907
0.014810475520789623
-0.05246568098664284
-0.008807775564491749
0.07420840114355087
0.08037119358778
-0.04855718836188316
-0.07886049151420593
0.017854316160082817
0.0740009993314743
0.05396715924143791
-0.022866645827889442
-0.09761860221624374
-0.060537248849868774
-0.1339913159608841
-0.05010824650526047
-0.18545617163181305
-0.06910637766122818
-0.09346716105937958
-0.1429583579301834
-0.15012553334236145
-0.15745526552200317
-0.11982796341180801
-0.12003117799758911
-0.019637994468212128
0.020918074995279312
0.06936594098806381
0.04483770951628685
0.0766090452671051
-0.01611492782831192
0.0009974264539778233
-0.03855690360069275
-0.015813739970326424
-0.06800432503223419
-0.06595432013273239
0.04848690703511238
-0.0002980806166306138
0.017985926941037178
-0.003632780397310853
0.03727652505040169
-0.06970298290252686
-0.04168272763490677
-0.0629599317908287
-0.14373423159122467
-0.03360362350940704
-0.1267625242471695
-0.04363591596484184
-0.06285730004310608
0.010795840993523598
-0.06620831787586212
0.03933302313089371
-0.10716681182384491
0.039245445281267166
0.05151078477501869
-0.05921078845858574
0.09032747894525528
0.05123354122042656
0.036909069865942
0.0070972447283566
0.0514637753367424
0.027059026062488556
-0.06764478236436844
-0.06508582085371017
-0.011840861290693283
0.00016675579536240548
-0.06430742144584656
-0.03238903358578682
0.09566526114940643
0.04233246669173241
-0.004457381088286638
-0.07515760511159897
0.03311773017048836
0.01744329184293747
0.07560350745916367
-0.0483304001390934
0.0005165399634279311
-0.030326751992106438
-0.00347508629783988
-0.05346325412392616
0.04195559397339821
0.02256307564675808
-0.016184570267796516
0.01878245174884796
0.011729312129318714
-0.04041018337011337
-0.04183919355273247
-0.07328983396291733
0.006638308987021446
0.00463031604886055
-0.061262473464012146
0.042953524738550186
0.07301775366067886
0.07026717811822891
0.008298713713884354
-0.031996577978134155
-0.07316190749406815
-0.008173767477273941
-0.020680921152234077
0.06457111239433289
-0.015869421884417534
0.060852471739053726
0.11824693530797958
0.012744826264679432
0.07928270101547241
0.11278850585222244
0.12540364265441895
0.056880880147218704
0.05623172968626022
0.036884017288684845
-0.030245862901210785
0.0022922218777239323
0.04132327809929848
-0.03958505019545555
0.041903965175151825
0.04165218770503998
-0.015247589908540249
-0.009466306306421757
0.0070040104910731316
0.06488931179046631
-0.004502951167523861
0.07985766232013702
0.007816547527909279
0.012489629909396172
0.045511841773986816
-0.04384855553507805
0.014838438481092453
-0.00836730096489191
-0.07858911156654358
0.034704409539699554
0.007348102517426014
-0.00804091989994049
0.021177032962441444
-0.022123221307992935
0.010237928479909897
0.05197405815124512
0.011660636402666569
0.05121426656842232
0.023406170308589935
-0.061269909143447876
-0.06176228076219559
-0.06382452696561813
0.05117041617631912
-0.0516829751431942
0.01297164335846901
-0.005473962053656578
-0.059654440730810165
0.024066288024187088
0.004882313776761293
-0.009160403162240982
0.026012729853391647
-0.027627188712358475
0.030869118869304657
0.047352638095617294
0.019981607794761658
-0.07410643994808197
-0.07348206639289856
-0.03470794856548309
-0.04840337485074997
0.0854962170124054
-0.08617296069860458
-0.06245112791657448
0.011893353424966335
-0.005906646139919758
-0.005968436133116484
-0.05750881880521774
-0.049404505640268326
-0.05263708159327507
0.05628646910190582
0.008536926470696926
-0.047797221690416336
0.013955042697489262
-0.007883572019636631
0.008890572004020214
-0.042172420769929886
0.06759395450353622
-0.04258964955806732
-0.08343637734651566
0.04960024356842041
-0.0019427919760346413
0.07867559790611267
-0.04169800877571106
0.058879341930150986
0.06502090394496918
-0.07692806422710419
-0.04875357076525688
0.07590349018573761
0.019886242225766182
0.043391160666942596
-0.034975603222846985
-0.05789628624916077
-0.019158022478222847
-0.07320858538150787
0.02143363654613495
-0.011750412173569202
0.004851342644542456
-0.039513878524303436
-0.07093842327594757
-0.03417227789759636
-0.08719431608915329
-0.01335221529006958
0.0010295466054230928
0.07691934704780579
0.014109134674072266
0.05248405411839485
0.08664291352033615
0.05042031407356262
-0.0646618902683258
-0.03382287174463272
0.03050660528242588
0.017236454412341118
-0.015118994750082493
-0.02497437596321106
-0.020848175510764122
-0.09079708158969879
-0.08138345927000046
-0.07090442627668381
-0.0711946189403534
-0.03473126143217087
-0.014689136296510696
0.013466070406138897
0.061557918787002563
-0.07649196684360504
-0.051095254719257355
-0.0755656436085701
-0.005391242448240519
0.00522509403526783
0.03743808716535568
-0.07776110619306564
-0.041634541004896164
0.009029596112668514
0.02226966992020607
0.04230472818017006
0.04495137184858322
-0.0037262910045683384
0.04337972775101662
0.07008913159370422
-0.07741978764533997
0.041896212846040726
-0.014975043945014477
-0.1081363707780838
-0.0005782092339359224
0.024286489933729172
-0.08857769519090652
0.025140471756458282
0.03380536660552025
0.02290789783000946
0.0392213873565197
0.0836934894323349
